{"learner":{"attributes":{"scikit_learn":"{\"_estimator_type\": \"regressor\"}"},"feature_names":["new_reviews","avg_rating","sentiment_mean","search_interest","buzz_score","stock_status_score","listing_change_score","discount_pct","rank_proxy","bsr_category_rank","price_competitiveness_index","competitor_count","reviews_7d_sum","search_7d_avg","sentiment_7d_avg","price_7d_avg","new_reviews_lag_1","new_reviews_lag_7","search_interest_lag_1","search_interest_lag_7","sentiment_mean_lag_1","sentiment_mean_lag_7","price_new_lag_1","price_new_lag_7","avg_rating_lag_1","avg_rating_lag_7","buzz_score_lag_1","buzz_score_lag_7","new_reviews_7d_sum","new_reviews_7d_mean","search_interest_7d_mean","sentiment_mean_7d_mean","price_new_7d_mean","price_new_7d_std","buzz_score_7d_mean","avg_rating_7d_mean","new_reviews_change","new_reviews_momentum","search_interest_change","search_interest_momentum","sentiment_mean_change","sentiment_mean_momentum","price_new_change","price_new_momentum","avg_rating_change","avg_rating_momentum","buzz_score_change","buzz_score_momentum","day_of_week_num","month_num","ad_index","search_index","sentiment_index","demand_lag_1","demand_lag_2","demand_lag_3","demand_lag_7","demand_3d_mean","demand_7d_mean","demand_7d_std","demand_change_1","demand_change_3","demand_momentum_7","demand_volatility_7d","demand_range_7d","trend_strength_7d","event_flag_today","event_flag_recent_3d","event_flag_next_3d","days_since_last_event","days_to_next_event","event_intensity_score","event_type_encoded","price_x_search","search_x_sentiment","ad_x_search","discount_x_demand_lag_1","buzz_x_search","rating_x_reviews","is_weekend","day_of_week_sin","day_of_week_cos","month_sin","month_cos"],"feature_types":["int","float","float","float","float","float","float","float","int","int","float","int","float","float","float","float","float","float","float","float","float","float","float","float","float","float","float","float","float","float","float","float","float","float","float","float","float","float","float","float","float","float","float","float","float","float","float","float","int","int","float","float","float","float","float","float","float","float","float","float","float","float","float","float","float","float","float","float","float","float","float","float","float","float","float","float","float","float","float","float","float","float","float","float"],"gradient_booster":{"model":{"cats":{"enc":[],"feature_segments":[],"sorted_idx":[]},"gbtree_model_param":{"num_parallel_tree":"1","num_trees":"700"},"iteration_indptr":[0,1,2,3,4,5,6,7,8,9,10,11,12,13,14,15,16,17,18,19,20,21,22,23,24,25,26,27,28,29,30,31,32,33,34,35,36,37,38,39,40,41,42,43,44,45,46,47,48,49,50,51,52,53,54,55,56,57,58,59,60,61,62,63,64,65,66,67,68,69,70,71,72,73,74,75,76,77,78,79,80,81,82,83,84,85,86,87,88,89,90,91,92,93,94,95,96,97,98,99,100,101,102,103,104,105,106,107,108,109,110,111,112,113,114,115,116,117,118,119,120,121,122,123,124,125,126,127,128,129,130,131,132,133,134,135,136,137,138,139,140,141,142,143,144,145,146,147,148,149,150,151,152,153,154,155,156,157,158,159,160,161,162,163,164,165,166,167,168,169,170,171,172,173,174,175,176,177,178,179,180,181,182,183,184,185,186,187,188,189,190,191,192,193,194,195,196,197,198,199,200,201,202,203,204,205,206,207,208,209,210,211,212,213,214,215,216,217,218,219,220,221,222,223,224,225,226,227,228,229,230,231,232,233,234,235,236,237,238,239,240,241,242,243,244,245,246,247,248,249,250,251,252,253,254,255,256,257,258,259,260,261,262,263,264,265,266,267,268,269,270,271,272,273,274,275,276,277,278,279,280,281,282,283,284,285,286,287,288,289,290,291,292,293,294,295,296,297,298,299,300,301,302,303,304,305,306,307,308,309,310,311,312,313,314,315,316,317,318,319,320,321,322,323,324,325,326,327,328,329,330,331,332,333,334,335,336,337,338,339,340,341,342,343,344,345,346,347,348,349,350,351,352,353,354,355,356,357,358,359,360,361,362,363,364,365,366,367,368,369,370,371,372,373,374,375,376,377,378,379,380,381,382,383,384,385,386,387,388,389,390,391,392,393,394,395,396,397,398,399,400,401,402,403,404,405,406,407,408,409,410,411,412,413,414,415,416,417,418,419,420,421,422,423,424,425,426,427,428,429,430,431,432,433,434,435,436,437,438,439,440,441,442,443,444,445,446,447,448,449,450,451,452,453,454,455,456,457,458,459,460,461,462,463,464,465,466,467,468,469,470,471,472,473,474,475,476,477,478,479,480,481,482,483,484,485,486,487,488,489,490,491,492,493,494,495,496,497,498,499,500,501,502,503,504,505,506,507,508,509,510,511,512,513,514,515,516,517,518,519,520,521,522,523,524,525,526,527,528,529,530,531,532,533,534,535,536,537,538,539,540,541,542,543,544,545,546,547,548,549,550,551,552,553,554,555,556,557,558,559,560,561,562,563,564,565,566,567,568,569,570,571,572,573,574,575,576,577,578,579,580,581,582,583,584,585,586,587,588,589,590,591,592,593,594,595,596,597,598,599,600,601,602,603,604,605,606,607,608,609,610,611,612,613,614,615,616,617,618,619,620,621,622,623,624,625,626,627,628,629,630,631,632,633,634,635,636,637,638,639,640,641,642,643,644,645,646,647,648,649,650,651,652,653,654,655,656,657,658,659,660,661,662,663,664,665,666,667,668,669,670,671,672,673,674,675,676,677,678,679,680,681,682,683,684,685,686,687,688,689,690,691,692,693,694,695,696,697,698,699,700],"tree_info":[0,0,0,0,0,0,0,0,0,0,0,0,0,0,0,0,0,0,0,0,0,0,0,0,0,0,0,0,0,0,0,0,0,0,0,0,0,0,0,0,0,0,0,0,0,0,0,0,0,0,0,0,0,0,0,0,0,0,0,0,0,0,0,0,0,0,0,0,0,0,0,0,0,0,0,0,0,0,0,0,0,0,0,0,0,0,0,0,0,0,0,0,0,0,0,0,0,0,0,0,0,0,0,0,0,0,0,0,0,0,0,0,0,0,0,0,0,0,0,0,0,0,0,0,0,0,0,0,0,0,0,0,0,0,0,0,0,0,0,0,0,0,0,0,0,0,0,0,0,0,0,0,0,0,0,0,0,0,0,0,0,0,0,0,0,0,0,0,0,0,0,0,0,0,0,0,0,0,0,0,0,0,0,0,0,0,0,0,0,0,0,0,0,0,0,0,0,0,0,0,0,0,0,0,0,0,0,0,0,0,0,0,0,0,0,0,0,0,0,0,0,0,0,0,0,0,0,0,0,0,0,0,0,0,0,0,0,0,0,0,0,0,0,0,0,0,0,0,0,0,0,0,0,0,0,0,0,0,0,0,0,0,0,0,0,0,0,0,0,0,0,0,0,0,0,0,0,0,0,0,0,0,0,0,0,0,0,0,0,0,0,0,0,0,0,0,0,0,0,0,0,0,0,0,0,0,0,0,0,0,0,0,0,0,0,0,0,0,0,0,0,0,0,0,0,0,0,0,0,0,0,0,0,0,0,0,0,0,0,0,0,0,0,0,0,0,0,0,0,0,0,0,0,0,0,0,0,0,0,0,0,0,0,0,0,0,0,0,0,0,0,0,0,0,0,0,0,0,0,0,0,0,0,0,0,0,0,0,0,0,0,0,0,0,0,0,0,0,0,0,0,0,0,0,0,0,0,0,0,0,0,0,0,0,0,0,0,0,0,0,0,0,0,0,0,0,0,0,0,0,0,0,0,0,0,0,0,0,0,0,0,0,0,0,0,0,0,0,0,0,0,0,0,0,0,0,0,0,0,0,0,0,0,0,0,0,0,0,0,0,0,0,0,0,0,0,0,0,0,0,0,0,0,0,0,0,0,0,0,0,0,0,0,0,0,0,0,0,0,0,0,0,0,0,0,0,0,0,0,0,0,0,0,0,0,0,0,0,0,0,0,0,0,0,0,0,0,0,0,0,0,0,0,0,0,0,0,0,0,0,0,0,0,0,0,0,0,0,0,0,0,0,0,0,0,0,0,0,0,0,0,0,0,0,0,0,0,0,0,0,0,0,0,0,0,0,0,0,0,0,0,0,0,0,0,0,0,0,0,0,0,0,0,0,0,0,0,0,0,0,0,0,0,0,0,0,0,0,0,0,0,0,0,0,0,0,0,0,0,0,0,0,0,0,0,0,0,0,0,0,0,0,0,0,0,0,0,0,0,0,0,0,0,0,0,0,0,0,0,0,0,0,0,0,0,0,0,0,0,0,0,0,0,0,0,0,0,0,0,0,0,0,0,0,0,0,0,0,0,0,0,0,0,0,0,0,0,0,0,0,0,0,0,0,0,0,0,0,0,0],"trees":[{"base_weights":[-1.4494606E-2,6.133487E0,-5.0921254E0,3.4792104E0,1.6730488E1,-1.701282E1,-3.5586329E0,7.0379157E0,1.7757964E0,1.8238518E1,6.832536E0,-1.9554914E1,-9.165954E0,-4.512192E0,3.6502295E0,5.084687E0,1.04262E1,2.1018054E0,-1.3124299E1,1.5710121E1,2.5592813E1,3.2361822E0,9.614654E0,-6.4789605E-1,-1.5784671E1,-9.541663E0,-1.2916684E-2,-3.0619488E0,-7.18423E0,-3.8031712E0,6.541423E0,5.5763907E0,-8.156092E0,9.327165E0,1.4339565E1,1.5494323E0,7.0572424E0,-1.249591E-2,-4.4831216E-1,1.0871621E1,1.7251259E1,5.1586795E-1,2.6990923E1,3.8639522E0,-5.3459764E-3,8.3138E-2,3.1449616E-1,-5.1047134E-1,-3.39736E-1,-4.6100597E0,-9.994657E0,-2.7310135E0,-1.0910909E1,-6.9114785E0,-1.3157559E1,-5.2741914E0,-1.55979E0,4.2989874E0,1.0845264E1,2.9292703E-1,1.4681919E-1,-3.0107468E-1,-4.2738844E-2,9.518326E-2,3.051676E-1,1.9394417E-1,4.8241732E-1,-1.7038656E-2,7.88164E-2,-3.2928702E-1,3.058702E-1,4.550369E-1,2.5738397E-1,3.0168897E-1,5.449107E-1,5.150322E-1,8.504401E-1,1.2851124E-1,2.137748E-2,-5.8484983E-2,-1.6479687E-1,-3.1974992E-1,-1.727766E-1,-1.1564107E-1,-2.5305295E-2,7.297023E-2,-4.315913E-1,-2.3998444E-1,-1.7822689E-1,-4.634998E-1,-6.465248E-2,-1.671949E-1,-2.5421185E-2,-1.7968155E-1,-9.932458E-3,-2.6473066E-1,1.4566074E-1,2.0348068E-1,4.3155143E-1],"categories":[],"categories_nodes":[],"categories_segments":[],"categories_sizes":[],"default_left":[0,0,0,0,0,0,0,0,0,0,0,0,0,0,0,0,0,0,0,0,0,0,0,0,0,0,0,0,0,0,0,0,0,0,0,0,0,0,0,0,0,0,0,0,0,0,0,0,0,0,0,0,0,0,0,0,0,0,0,0,0,0,0,0,0,0,0,0,0,0,0,0,0,0,0,0,0,0,0,0,0,0,0,0,0,0,0,0,0,0,0,0,0,0,0,0,0,0,0],"id":0,"left_children":[1,3,5,7,9,11,13,15,17,19,21,23,25,27,29,31,33,35,37,39,41,43,45,-1,47,49,-1,51,53,55,57,59,61,63,65,67,69,-1,-1,71,73,-1,75,77,-1,-1,-1,-1,-1,79,81,83,85,87,89,91,93,95,97,-1,-1,-1,-1,-1,-1,-1,-1,-1,-1,-1,-1,-1,-1,-1,-1,-1,-1,-1,-1,-1,-1,-1,-1,-1,-1,-1,-1,-1,-1,-1,-1,-1,-1,-1,-1,-1,-1,-1,-1],"loss_changes":[1.3847922E5,5.6346234E4,4.4317047E4,9.71801E3,5.8010156E3,5.240883E3,1.483508E4,3.3554746E3,5.326632E3,5.850258E3,5.0606177E2,1.0783906E3,2.2322168E2,7.341215E3,5.479044E3,2.23246E3,6.053711E2,2.9011543E3,5.309353E2,1.6704609E3,3.105039E2,5.857132E1,1.350586E2,0E0,1.3630273E2,7.875928E1,0E0,3.164379E3,9.4871875E2,2.2224768E2,1.6883589E3,8.441924E2,1.3442883E2,7.368721E2,3.6739062E2,2.1968699E3,6.195273E3,0E0,0E0,4.6477393E2,1.0103711E3,0E0,2.1404688E2,2.418509E1,0E0,0E0,0E0,0E0,0E0,2.4205475E0,7.4703125E1,2.514954E3,2.350395E3,6.0440625E2,6.4015234E2,4.7880615E1,1.6176315E2,9.579009E2,7.338218E2,0E0,0E0,0E0,0E0,0E0,0E0,0E0,0E0,0E0,0E0,0E0,0E0,0E0,0E0,0E0,0E0,0E0,0E0,0E0,0E0,0E0,0E0,0E0,0E0,0E0,0E0,0E0,0E0,0E0,0E0,0E0,0E0,0E0,0E0,0E0,0E0,0E0,0E0,0E0,0E0],"parents":[2147483647,0,0,1,1,2,2,3,3,4,4,5,5,6,6,7,7,8,8,9,9,10,10,11,11,12,12,13,13,14,14,15,15,16,16,17,17,18,18,19,19,20,20,21,21,22,22,24,24,25,25,27,27,28,28,29,29,30,30,31,31,32,32,33,33,34,34,35,35,36,36,39,39,40,40,42,42,43,43,49,49,50,50,51,51,52,52,53,53,54,54,55,55,56,56,57,57,58,58],"right_children":[2,4,6,8,10,12,14,16,18,20,22,24,26,28,30,32,34,36,38,40,42,44,46,-1,48,50,-1,52,54,56,58,60,62,64,66,68,70,-1,-1,72,74,-1,76,78,-1,-1,-1,-1,-1,80,82,84,86,88,90,92,94,96,98,-1,-1,-1,-1,-1,-1,-1,-1,-1,-1,-1,-1,-1,-1,-1,-1,-1,-1,-1,-1,-1,-1,-1,-1,-1,-1,-1,-1,-1,-1,-1,-1,-1,-1,-1,-1,-1,-1,-1,-1],"split_conditions":[4.52E2,5.3588654E1,6.0122174E2,3.99E2,5E0,3E0,7.1894903E0,4.264882E2,6E0,4.490509E2,4.2451382E2,1E0,1.2437947E1,5.14E2,1E0,6E0,3.8450818E2,1E0,2.0588448E1,2.9951782E1,8.5234E2,3.135382E-2,3.4178467E1,-6.4789605E-1,2.3907766E1,4E0,-1.2916684E-2,1E0,1E0,2.9034597E1,5.3414524E1,3.38E2,8E0,4.1192375E1,3.4651276E1,3.462531E1,4.916E0,-1.249591E-2,-4.4831216E-1,2.5685402E1,3.9662032E0,5.1586795E-1,3.0992905E1,6.293126E-1,-5.3459764E-3,8.3138E-2,3.1449616E-1,-5.1047134E-1,-3.39736E-1,4.77E2,1.0211024E0,3.156416E1,4E0,9.184186E1,2.1202247E0,7E0,-3.1451482E-2,1.8157959E1,2.8177717E1,2.9292703E-1,1.4681919E-1,-3.0107468E-1,-4.2738844E-2,9.518326E-2,3.051676E-1,1.9394417E-1,4.8241732E-1,-1.7038656E-2,7.88164E-2,-3.2928702E-1,3.058702E-1,4.550369E-1,2.5738397E-1,3.0168897E-1,5.449107E-1,5.150322E-1,8.504401E-1,1.2851124E-1,2.137748E-2,-5.8484983E-2,-1.6479687E-1,-3.1974992E-1,-1.727766E-1,-1.1564107E-1,-2.5305295E-2,7.297023E-2,-4.315913E-1,-2.3998444E-1,-1.7822689E-1,-4.634998E-1,-6.465248E-2,-1.671949E-1,-2.5421185E-2,-1.7968155E-1,-9.932458E-3,-2.6473066E-1,1.4566074E-1,2.0348068E-1,4.3155143E-1],"split_indices":[9,3,77,9,70,70,50,23,72,15,76,66,7,9,68,72,75,68,34,58,75,40,55,0,53,72,0,68,68,55,3,9,0,58,55,58,50,0,0,34,1,0,56,20,0,0,0,0,0,9,10,57,72,15,39,16,40,4,56,0,0,0,0,0,0,0,0,0,0,0,0,0,0,0,0,0,0,0,0,0,0,0,0,0,0,0,0,0,0,0,0,0,0,0,0,0,0,0,0],"split_type":[0,0,0,0,0,0,0,0,0,0,0,0,0,0,0,0,0,0,0,0,0,0,0,0,0,0,0,0,0,0,0,0,0,0,0,0,0,0,0,0,0,0,0,0,0,0,0,0,0,0,0,0,0,0,0,0,0,0,0,0,0,0,0,0,0,0,0,0,0,0,0,0,0,0,0,0,0,0,0,0,0,0,0,0,0,0,0,0,0,0,0,0,0,0,0,0,0,0,0],"sum_hessian":[4.433E3,2.005E3,2.428E3,1.605E3,4E2,2.75E2,2.153E3,5.18E2,1.087E3,3.46E2,5.4E1,2.06E2,6.9E1,1.902E3,2.51E2,3.31E2,1.87E2,1.065E3,2.2E1,2.61E2,8.5E1,2.5E1,2.9E1,1.29E2,7.7E1,6.6E1,3E0,1.235E3,6.67E2,7E1,1.81E2,3.2E2,1.1E1,1.5E2,3.7E1,9.6E2,1.05E2,3E0,1.9E1,6.6E1,1.95E2,1.5E1,7E1,2.1E1,4E0,4E0,2.5E1,5.7E1,2E1,7E0,5.9E1,1.187E3,4.8E1,6.41E2,2.6E1,4.1E1,2.9E1,1.21E2,6E1,4.2E1,2.78E2,8E0,3E0,1.9E1,1.31E2,8E0,2.9E1,3.24E2,6.36E2,1.5E1,9E1,2E1,4.6E1,2.4E1,1.71E2,1.1E1,5.9E1,1.8E1,3E0,3E0,4E0,4.9E1,1E1,7.43E2,4.44E2,1E1,3.8E1,2.97E2,3.44E2,2.1E1,5E0,3.8E1,3E0,5E0,2.4E1,4E0,1.17E2,3E1,3E1],"tree_param":{"num_deleted":"0","num_feature":"84","num_nodes":"99","size_leaf_vector":"1"}},{"base_weights":[-2.13813E-2,6.813118E0,-4.4399214E0,4.354807E0,1.8247723E1,-1.6363876E1,-2.9782696E0,7.3005443E0,2.3289561E0,1.5732677E1,2.409867E1,-1.9409174E1,-8.754955E0,-3.92116E0,3.8838706E0,7.628793E0,-7.5375676E0,2.612081E0,-1.3345792E1,1.3955061E1,1.94752E1,4.868112E0,2.5620966E1,-6.3162744E-1,-1.5614397E1,-5.162683E0,-9.987561E0,-2.037773E0,-6.4048743E0,-3.32381E0,6.7028565E0,1.3633051E1,6.8534427E0,-3.186848E-2,-2.7650538E-1,1.9560107E0,7.7385178E0,-1.1439747E-1,-4.5480037E-1,1.4535908E1,6.7893157E0,2.0124553E-1,2.0117811E1,5.229915E-2,1.8182226E-1,6.1673766E-1,8.6946493E-1,-5.020679E-1,-3.2510757E-1,-1.8834116E0,-2.124952E-1,-3.834824E-1,-8.150549E0,-3.2347944E0,-2.606156E-1,-6.0570207E0,-1.2453269E1,-1.3044025E0,-5.3155813E0,3.782163E0,9.473824E0,1.8219599E-1,4.2747834E-1,1.5127695E-1,2.8550446E-1,2.2386556E-2,1.2030927E-1,-3.2419312E-1,3.1040552E-1,2.864099E-1,4.657402E-1,6.984817E-2,2.8511658E-1,6.184362E-1,2.7663222E-1,-9.7428694E-2,-1.6139197E-3,-7.2693534E-2,-2.6435846E-1,-9.0761825E-2,-2.3553073E-1,-2.6209198E-2,4.5933966E-2,-2.1132506E-1,-1.3524944E-1,-4.1931936E-1,1.767469E-2,-1.002285E-1,1.9007133E-2,-1.6705662E-1,-4.0048707E-2,1.8960297E-1,-1.0661437E-2,2.0562376E-1,3.548731E-1],"categories":[],"categories_nodes":[],"categories_segments":[],"categories_sizes":[],"default_left":[0,0,0,0,0,0,0,0,0,0,0,0,0,0,0,0,0,0,0,0,0,0,0,0,0,0,0,0,0,0,0,0,0,0,0,0,0,0,0,0,0,0,0,0,0,0,0,0,0,0,0,0,0,0,0,0,0,0,0,0,0,0,0,0,0,0,0,0,0,0,0,0,0,0,0,0,0,0,0,0,0,0,0,0,0,0,0,0,0,0,0,0,0,0,0],"id":1,"left_children":[1,3,5,7,9,11,13,15,17,19,21,23,25,27,29,31,33,35,37,39,41,43,45,-1,47,49,51,53,55,57,59,61,63,-1,-1,65,67,-1,-1,69,71,-1,73,-1,-1,-1,-1,-1,-1,75,-1,-1,77,79,81,83,85,87,89,91,93,-1,-1,-1,-1,-1,-1,-1,-1,-1,-1,-1,-1,-1,-1,-1,-1,-1,-1,-1,-1,-1,-1,-1,-1,-1,-1,-1,-1,-1,-1,-1,-1,-1,-1],"loss_changes":[1.3516812E5,4.927929E4,4.730287E4,8.616674E3,3.9924531E3,6.6098047E3,1.570349E4,2.9574863E3,3.8689663E3,1.0592344E3,2.456168E3,8.13625E2,3.07063E2,9.949457E3,5.997531E3,2.544246E3,1.3005426E2,2.8223916E3,1.7755103E2,4.9492383E2,3.4598828E2,1.4267883E1,5.173633E2,0E0,9.47207E1,1.387901E2,1.6559326E2,2.5816367E3,1.8156367E3,3.2412903E2,1.6553018E3,1.6660645E2,2.4065605E3,0E0,0E0,1.8647283E3,4.787099E3,0E0,0E0,4.7559766E2,1.4003442E2,0E0,5.2609375E1,0E0,0E0,0E0,0E0,0E0,0E0,2.7781433E1,0E0,0E0,1.2671973E2,6.6349316E2,5.406329E2,1.2824082E3,9.790742E2,1.754013E2,2.925879E1,1.1123987E3,5.379336E2,0E0,0E0,0E0,0E0,0E0,0E0,0E0,0E0,0E0,0E0,0E0,0E0,0E0,0E0,0E0,0E0,0E0,0E0,0E0,0E0,0E0,0E0,0E0,0E0,0E0,0E0,0E0,0E0,0E0,0E0,0E0,0E0,0E0,0E0],"parents":[2147483647,0,0,1,1,2,2,3,3,4,4,5,5,6,6,7,7,8,8,9,9,10,10,11,11,12,12,13,13,14,14,15,15,16,16,17,17,18,18,19,19,20,20,21,21,22,22,24,24,25,25,26,26,27,27,28,28,29,29,30,30,31,31,32,32,35,35,36,36,39,39,40,40,42,42,49,49,52,52,53,53,54,54,55,55,56,56,57,57,58,58,59,59,60,60],"right_children":[2,4,6,8,10,12,14,16,18,20,22,24,26,28,30,32,34,36,38,40,42,44,46,-1,48,50,52,54,56,58,60,62,64,-1,-1,66,68,-1,-1,70,72,-1,74,-1,-1,-1,-1,-1,-1,76,-1,-1,78,80,82,84,86,88,90,92,94,-1,-1,-1,-1,-1,-1,-1,-1,-1,-1,-1,-1,-1,-1,-1,-1,-1,-1,-1,-1,-1,-1,-1,-1,-1,-1,-1,-1,-1,-1,-1,-1,-1,-1],"split_conditions":[4.42E2,5.4620487E1,4.1455585E1,3.99E2,4.152575E2,3E0,7.1894903E0,6E0,6E0,5.8949738E1,1E0,1E0,4E0,5E2,1E0,3.21E2,3.17E2,1E0,-6.0448074E-3,7E0,3.0875153E1,6E0,5.775081E1,-6.3162744E-1,2.3907766E1,4.88E2,5E0,3.2234947E1,1E0,4.85E2,5.2006985E1,1.8463196E0,3.9198986E1,-3.186848E-2,-2.7650538E-1,3.9059948E1,4.916E0,-1.1439747E-1,-4.5480037E-1,3.9549713E0,3.9793095E1,2.0124553E-1,6.250646E-1,5.229915E-2,1.8182226E-1,6.1673766E-1,8.6946493E-1,-5.020679E-1,-3.2510757E-1,-4.675671E-1,-2.124952E-1,-3.834824E-1,2.75E2,4E0,1.8633643E4,2.6947065E1,4.7833138E1,3.0219221E1,3.0875153E1,5E2,2.8177717E1,1.8219599E-1,4.2747834E-1,1.5127695E-1,2.8550446E-1,2.2386556E-2,1.2030927E-1,-3.2419312E-1,3.1040552E-1,2.864099E-1,4.657402E-1,6.984817E-2,2.8511658E-1,6.184362E-1,2.7663222E-1,-9.7428694E-2,-1.6139197E-3,-7.2693534E-2,-2.6435846E-1,-9.0761825E-2,-2.3553073E-1,-2.6209198E-2,4.5933966E-2,-2.1132506E-1,-1.3524944E-1,-4.1931936E-1,1.767469E-2,-1.002285E-1,1.9007133E-2,-1.6705662E-1,-4.0048707E-2,1.8960297E-1,-1.0661437E-2,2.0562376E-1,3.548731E-1],"split_indices":[9,3,3,9,22,70,50,72,72,3,68,66,72,9,68,9,9,68,44,70,53,17,3,0,53,9,70,55,68,9,3,33,56,0,0,58,50,0,0,24,55,0,14,0,0,0,0,0,0,60,0,0,8,72,73,57,3,55,53,9,56,0,0,0,0,0,0,0,0,0,0,0,0,0,0,0,0,0,0,0,0,0,0,0,0,0,0,0,0,0,0,0,0,0,0],"split_type":[0,0,0,0,0,0,0,0,0,0,0,0,0,0,0,0,0,0,0,0,0,0,0,0,0,0,0,0,0,0,0,0,0,0,0,0,0,0,0,0,0,0,0,0,0,0,0,0,0,0,0,0,0,0,0,0,0,0,0,0,0,0,0,0,0,0,0,0,0,0,0,0,0,0,0,0,0,0,0,0,0,0,0,0,0,0,0,0,0,0,0,0,0,0,0],"sum_hessian":[4.473E3,1.756E3,2.717E3,1.447E3,3.09E2,2.95E2,2.422E3,5.88E2,8.59E2,2.2E2,8.9E1,2.09E2,8.6E1,2.13E3,2.92E2,5.76E2,1.2E1,8.45E2,1.4E1,1.54E2,6.6E1,7E0,8.2E1,1.41E2,6.8E1,2.4E1,6.2E1,1.213E3,9.17E2,8.2E1,2.1E2,6.3E1,5.13E2,3E0,9E0,7.51E2,9.4E1,3E0,1.1E1,1.41E2,1.3E1,4E0,6.2E1,3E0,4E0,3.7E1,4.5E1,5.2E1,1.6E1,1E1,1.4E1,2.1E1,4.1E1,7.24E2,4.89E2,8.7E2,4.7E1,4.2E1,4E1,1.04E2,1.06E2,6E0,5.7E1,3.08E2,2.05E2,4.74E2,2.77E2,1.1E1,8.3E1,2.6E1,1.15E2,6E0,7E0,5.8E1,4E0,5E0,5E0,5E0,3.6E1,6.95E2,2.9E1,3.65E2,1.24E2,5.28E2,3.42E2,4.2E1,5E0,2E1,2.2E1,3.7E1,3E0,6.4E1,4E1,5.3E1,5.3E1],"tree_param":{"num_deleted":"0","num_feature":"84","num_nodes":"95","size_leaf_vector":"1"}},{"base_weights":[-6.164647E-2,5.9408417E0,-4.816814E0,3.4271302E0,1.6314386E1,-1.6107634E1,-3.2876544E0,1.7833622E0,6.8230414E0,1.367298E1,2.4575193E1,-7.5517335E0,-1.840335E1,-4.167853E0,3.500031E0,2.1281173E0,-1.1989659E1,8.344634E0,3.6338751E0,9.662945E0,1.5971684E1,1.8434978E1,2.7409386E1,-3.7731154E0,-8.75538E0,-1.9568731E1,-1.5407777E1,-2.7562249E0,-6.746979E0,-3.5437E0,6.379299E0,1.4247525E0,7.9780946E0,-4.1273576E-1,3.589136E-2,5.063842E0,9.516559E0,-3.4122124E-1,4.098096E0,5.3712325E0,1.168357E1,1.0819604E1,1.7275146E1,2.1100578E-1,1.9616522E1,8.3878785E-1,3.3960837E-1,-1.4200154E-1,-5.283023E-3,-8.976252E0,-1.06776625E-1,-6.14412E-1,-1.2860532E1,-4.9508995E-1,-3.1619036E-1,-3.84182E0,-9.829902E-1,-6.440145E0,-1.1810683E1,-5.0996084E0,-1.1705738E0,3.1294885E0,8.804577E0,1.6822447E-1,2.8996618E-2,-2.9591537E-1,3.0178335E-1,1.6787744E-1,-2.2550157E-1,2.5756177E-1,4.3817458E-1,4.112512E-2,1.4190555E-1,5.857362E-3,2.1510223E-1,3.8254243E-1,1.0002372E-1,2.1245855E-1,4.4644174E-1,3.0195358E-1,5.377926E-1,6.388513E-1,3.5064316E-1,-2.8031963E-1,-1.3748279E-1,-1.525934E-1,-4.0848804E-1,-1.08715504E-1,-2.4808931E-1,-2.091418E-2,-2.547281E-1,-2.2898059E-1,-1.6485754E-1,6.0444273E-2,-3.9318892E-1,-1.6064474E-1,-3.0049022E-2,-1.0705682E-1,3.1267904E-2,3.670386E-2,2.666945E-1,1.9653232E-1,3.7814087E-1],"categories":[],"categories_nodes":[],"categories_segments":[],"categories_sizes":[],"default_left":[0,0,0,0,0,0,0,0,0,0,0,0,0,0,0,0,0,0,0,0,0,0,0,0,0,0,0,0,0,0,0,0,0,0,0,0,0,0,0,0,0,0,0,0,0,0,0,0,0,0,0,0,0,0,0,0,0,0,0,0,0,0,0,0,0,0,0,0,0,0,0,0,0,0,0,0,0,0,0,0,0,0,0,0,0,0,0,0,0,0,0,0,0,0,0,0,0,0,0,0,0,0,0],"id":2,"left_children":[1,3,5,7,9,11,13,15,17,19,21,23,25,27,29,31,33,35,37,39,41,43,45,47,49,51,53,55,57,59,61,63,65,-1,-1,67,69,-1,71,73,75,77,79,-1,81,-1,-1,-1,-1,83,-1,-1,85,-1,-1,87,89,91,93,95,97,99,101,-1,-1,-1,-1,-1,-1,-1,-1,-1,-1,-1,-1,-1,-1,-1,-1,-1,-1,-1,-1,-1,-1,-1,-1,-1,-1,-1,-1,-1,-1,-1,-1,-1,-1,-1,-1,-1,-1,-1,-1],"loss_changes":[1.2775762E5,5.1503742E4,4.303717E4,8.88067E3,7.899992E3,5.6298203E3,1.3174896E4,5.147867E3,2.4730508E3,2.4872578E3,8.2522656E2,2.458435E2,3.55875E2,7.067883E3,5.175657E3,4.307643E3,6.450635E2,1.272416E3,1.2563337E3,8.6937695E2,9.5975E2,2.3899902E2,4.409375E1,6.166867E1,5.232666E0,5.9204297E2,1.2023242E2,2.4237012E3,9.519883E2,2.648731E2,1.3789282E3,1.7930427E3,4.3266016E3,0E0,0E0,7.0196606E2,1.0228086E3,0E0,2.7607788E2,3.548922E2,5.972461E2,4.6755762E2,4.0697656E2,0E0,1.2641602E1,0E0,0E0,0E0,0E0,6.494873E0,0E0,0E0,3.0437988E1,0E0,0E0,7.0788574E2,1.0226559E3,6.697129E2,7.135469E2,3.722461E1,1.732345E2,8.5452014E2,7.5007324E2,0E0,0E0,0E0,0E0,0E0,0E0,0E0,0E0,0E0,0E0,0E0,0E0,0E0,0E0,0E0,0E0,0E0,0E0,0E0,0E0,0E0,0E0,0E0,0E0,0E0,0E0,0E0,0E0,0E0,0E0,0E0,0E0,0E0,0E0,0E0,0E0,0E0,0E0,0E0,0E0],"parents":[2147483647,0,0,1,1,2,2,3,3,4,4,5,5,6,6,7,7,8,8,9,9,10,10,11,11,12,12,13,13,14,14,15,15,16,16,17,17,18,18,19,19,20,20,21,21,22,22,23,23,24,24,25,25,26,26,27,27,28,28,29,29,30,30,31,31,32,32,35,35,36,36,38,38,39,39,40,40,41,41,42,42,44,44,49,49,52,52,55,55,56,56,57,57,58,58,59,59,60,60,61,61,62,62],"right_children":[2,4,6,8,10,12,14,16,18,20,22,24,26,28,30,32,34,36,38,40,42,44,46,48,50,52,54,56,58,60,62,64,66,-1,-1,68,70,-1,72,74,76,78,80,-1,82,-1,-1,-1,-1,84,-1,-1,86,-1,-1,88,90,92,94,96,98,100,102,-1,-1,-1,-1,-1,-1,-1,-1,-1,-1,-1,-1,-1,-1,-1,-1,-1,-1,-1,-1,-1,-1,-1,-1,-1,-1,-1,-1,-1,-1,-1,-1,-1,-1,-1,-1,-1,-1,-1,-1],"split_conditions":[4.51E2,7.6916016E2,4.1455585E1,4.200815E1,2.3846965E4,1E0,7.1894903E0,6E0,4.04E2,5.501724E1,3.5733112E1,5.21E2,1E0,5.14E2,1E0,1E0,5.1035367E-2,1.2977225E2,4.1455585E1,3.04056E1,2.909392E1,2.1202247E0,4.3500558E-2,5.143827E0,7.753185E-2,3E0,2.3907766E1,3.1877098E1,1E0,2.883073E1,2.7325474E1,3.71E2,4.916E0,-4.1273576E-1,3.589136E-2,6E0,4.3344287E2,-3.4122124E-1,2.0879133E1,2.7088327E1,3E0,1.5962631E1,3.9550211E0,2.1100578E-1,1.6233627E-2,8.3878785E-1,3.3960837E-1,-1.4200154E-1,-5.283023E-3,1.4547704E1,-1.06776625E-1,-6.14412E-1,-1.5398502E1,-4.9508995E-1,-3.1619036E-1,4E0,4E0,9.184186E1,5.405314E-1,7.141282E2,-1.520003E0,1.0386188E1,1.1858139E1,1.6822447E-1,2.8996618E-2,-2.9591537E-1,3.0178335E-1,1.6787744E-1,-2.2550157E-1,2.5756177E-1,4.3817458E-1,4.112512E-2,1.4190555E-1,5.857362E-3,2.1510223E-1,3.8254243E-1,1.0002372E-1,2.1245855E-1,4.4644174E-1,3.0195358E-1,5.377926E-1,6.388513E-1,3.5064316E-1,-2.8031963E-1,-1.3748279E-1,-1.525934E-1,-4.0848804E-1,-1.08715504E-1,-2.4808931E-1,-2.091418E-2,-2.547281E-1,-2.2898059E-1,-1.6485754E-1,6.0444273E-2,-3.9318892E-1,-1.6064474E-1,-3.0049022E-2,-1.0705682E-1,3.1267904E-2,3.670386E-2,2.666945E-1,1.9653232E-1,3.7814087E-1],"split_indices":[9,75,3,58,73,68,50,72,9,3,54,9,66,9,68,68,41,23,3,58,58,39,40,59,40,70,53,58,68,55,58,9,50,0,0,72,75,0,78,54,70,64,1,0,45,0,0,0,0,47,0,0,47,0,0,72,72,15,20,23,60,39,50,0,0,0,0,0,0,0,0,0,0,0,0,0,0,0,0,0,0,0,0,0,0,0,0,0,0,0,0,0,0,0,0,0,0,0,0,0,0,0,0],"split_type":[0,0,0,0,0,0,0,0,0,0,0,0,0,0,0,0,0,0,0,0,0,0,0,0,0,0,0,0,0,0,0,0,0,0,0,0,0,0,0,0,0,0,0,0,0,0,0,0,0,0,0,0,0,0,0,0,0,0,0,0,0,0,0,0,0,0,0,0,0,0,0,0,0,0,0,0,0,0,0,0,0,0,0,0,0,0,0,0,0,0,0,0,0,0,0,0,0,0,0,0,0,0,0],"sum_hessian":[4.473E3,1.977E3,2.496E3,1.593E3,3.84E2,2.96E2,2.2E3,1.075E3,5.18E2,2.94E2,9E1,6.4E1,2.32E2,1.948E3,2.52E2,1.05E3,2.5E1,3.49E2,1.69E2,1.1E2,1.84E2,3.2E1,5.8E1,1.7E1,4.7E1,1.61E2,7.1E1,1.261E3,6.87E2,7.3E1,1.79E2,9.39E2,1.11E2,2.2E1,3E0,9.4E1,2.55E2,4E0,1.65E2,3.7E1,7.3E1,4E1,1.44E2,4E0,2.8E1,5.5E1,3E0,1.3E1,4E0,4.4E1,3E0,1.39E2,2.2E1,5.5E1,1.6E1,7.81E2,4.8E2,6.51E2,3.6E1,4.3E1,3E1,7.8E1,1.01E2,9.1E1,8.48E2,1.1E1,1E2,9.1E1,3E0,2.19E2,3.6E1,3.2E1,1.33E2,1E1,2.7E1,6.4E1,9E0,2.3E1,1.7E1,1.4E1,1.3E2,2.1E1,7E0,3.9E1,5E0,3E0,1.9E1,7.47E2,3.4E1,4.64E2,1.6E1,2.83E2,3.68E2,3E0,3.3E1,4E1,3E0,1.4E1,1.6E1,6E1,1.8E1,6.6E1,3.5E1],"tree_param":{"num_deleted":"0","num_feature":"84","num_nodes":"103","size_leaf_vector":"1"}},{"base_weights":[-7.285184E-2,6.401902E0,-4.195764E0,4.1135306E0,1.7230886E1,-1.6141022E1,-2.8674943E0,6.9390697E0,2.1182806E0,1.4707722E1,2.3506763E1,-1.8430864E1,-9.152587E0,-3.7689888E0,3.8453255E0,5.096929E0,1.0036382E1,2.4211707E0,-1.332599E1,1.5275697E1,6.798438E0,4.616083E0,2.5121094E1,-5.9262455E-1,-1.5431225E1,-3.640254E-1,-7.420704E0,-2.365642E0,-6.635335E0,-3.0892072E0,6.6622777E0,5.457831E0,-7.0522823E0,8.45193E0,1.4514882E1,1.7848839E0,7.2947817E0,-1.073224E-1,-4.52401E-1,9.654824E0,1.6271654E1,2.6517334E0,2.9551956E-1,4.7890984E-2,1.7374395E-1,5.231333E-1,2.700249E1,-4.720982E-1,-1.7190504E-1,-8.231418E0,-2.7717586E0,-3.404992E0,-5.316322E-1,-6.2693987E0,-1.192089E1,-4.6788325E0,-8.6199975E-1,3.741517E0,9.626066E0,2.9790065E-1,1.3651988E-1,-2.721549E-2,-2.711256E-1,2.6167893E-1,-1.2469302E-1,5.8585775E-1,3.460496E-1,-1.6667292E-2,8.211952E-2,-2.742412E-1,2.8797117E-1,1.9037463E-1,3.8026893E-1,4.2575896E-1,5.5224144E-1,3.3323344E-2,9.2275225E-2,8.285296E-1,3.070052E-1,-2.6589537E-1,-1.279621E-1,-1.4888603E-2,-1.1030038E-1,-9.704074E-2,-2.534E-1,-4.716681E-3,-2.5772312E-1,-2.2122657E-1,-1.6082147E-1,5.9235398E-2,-3.9004692E-1,-1.5291515E-1,-2.1129563E-2,-1.1600624E-1,1.3029894E-2,1.3280494E-2,1.9164719E-1,2.2447792E-1,4.004906E-1],"categories":[],"categories_nodes":[],"categories_segments":[],"categories_sizes":[],"default_left":[0,0,0,0,0,0,0,0,0,0,0,0,0,0,0,0,0,0,0,0,0,0,0,0,0,0,0,0,0,0,0,0,0,0,0,0,0,0,0,0,0,0,0,0,0,0,0,0,0,0,0,0,0,0,0,0,0,0,0,0,0,0,0,0,0,0,0,0,0,0,0,0,0,0,0,0,0,0,0,0,0,0,0,0,0,0,0,0,0,0,0,0,0,0,0,0,0,0,0],"id":3,"left_children":[1,3,5,7,9,11,13,15,17,19,21,23,25,27,29,31,33,35,37,39,41,43,45,-1,47,-1,49,51,53,55,57,59,61,63,65,67,69,-1,-1,71,73,75,-1,-1,-1,-1,77,-1,-1,79,81,83,85,87,89,91,93,95,97,-1,-1,-1,-1,-1,-1,-1,-1,-1,-1,-1,-1,-1,-1,-1,-1,-1,-1,-1,-1,-1,-1,-1,-1,-1,-1,-1,-1,-1,-1,-1,-1,-1,-1,-1,-1,-1,-1,-1,-1],"loss_changes":[1.19566016E5,4.306986E4,4.334552E4,8.0971855E3,4.279703E3,4.1181094E3,1.4935822E4,3.3179746E3,4.0060713E3,8.303594E2,2.3970078E3,3.4745312E2,2.2506836E2,8.717508E3,5.7453535E3,1.7082461E3,1.3760488E3,2.5571475E3,1.9748804E2,9.0398047E2,1.798086E2,1.4823715E1,4.0510938E2,0E0,6.63418E1,0E0,1.463711E2,2.782377E3,1.264291E3,2.9554858E2,1.7481865E3,1.4162227E3,1.2600714E2,6.235791E2,4.8508203E2,1.6467029E3,3.7485986E3,0E0,0E0,2.2039722E2,3.6358984E2,2.4635315E-1,0E0,0E0,0E0,0E0,1.8226953E2,0E0,0E0,4.2142334E1,1.5990036E1,7.573242E2,1.5969647E3,6.1129297E2,7.089429E2,7.5757935E1,1.4927982E2,9.3298486E2,6.6409863E2,0E0,0E0,0E0,0E0,0E0,0E0,0E0,0E0,0E0,0E0,0E0,0E0,0E0,0E0,0E0,0E0,0E0,0E0,0E0,0E0,0E0,0E0,0E0,0E0,0E0,0E0,0E0,0E0,0E0,0E0,0E0,0E0,0E0,0E0,0E0,0E0,0E0,0E0,0E0,0E0],"parents":[2147483647,0,0,1,1,2,2,3,3,4,4,5,5,6,6,7,7,8,8,9,9,10,10,11,11,12,12,13,13,14,14,15,15,16,16,17,17,18,18,19,19,20,20,21,21,22,22,24,24,26,26,27,27,28,28,29,29,30,30,31,31,32,32,33,33,34,34,35,35,36,36,39,39,40,40,41,41,46,46,49,49,50,50,51,51,52,52,53,53,54,54,55,55,56,56,57,57,58,58],"right_children":[2,4,6,8,10,12,14,16,18,20,22,24,26,28,30,32,34,36,38,40,42,44,46,-1,48,-1,50,52,54,56,58,60,62,64,66,68,70,-1,-1,72,74,76,-1,-1,-1,-1,78,-1,-1,80,82,84,86,88,90,92,94,96,98,-1,-1,-1,-1,-1,-1,-1,-1,-1,-1,-1,-1,-1,-1,-1,-1,-1,-1,-1,-1,-1,-1,-1,-1,-1,-1,-1,-1,-1,-1,-1,-1,-1,-1,-1,-1,-1,-1,-1,-1],"split_conditions":[4.42E2,5.4620487E1,4.090254E1,3.99E2,4.152575E2,3E0,7.1894903E0,4.264882E2,6E0,5E0,1E0,1E0,5E0,5.14E2,1E0,6E0,8.246845E0,1E0,-6.0448074E-3,3.9550211E0,3.9793095E1,6E0,3.5182384E1,-5.9262455E-1,2.8835293E1,-3.640254E-1,1.16079E0,3.1981934E1,1E0,2.883073E1,5.223327E1,3.38E2,3.17E2,1E0,4.0486617E0,3.4688797E1,4.916E0,-1.073224E-1,-4.52401E-1,1.5259552E1,9.116994E0,7E0,2.9551956E-1,4.7890984E-2,1.7374395E-1,5.231333E-1,1.0319795E3,-4.720982E-1,-1.7190504E-1,6.0224575E-1,4.88E2,1E0,4E0,9.184186E1,5.405314E-1,1.08622675E1,-2.7114477E0,2.7136688E1,4E0,2.9790065E-1,1.3651988E-1,-2.721549E-2,-2.711256E-1,2.6167893E-1,-1.2469302E-1,5.8585775E-1,3.460496E-1,-1.6667292E-2,8.211952E-2,-2.742412E-1,2.8797117E-1,1.9037463E-1,3.8026893E-1,4.2575896E-1,5.5224144E-1,3.3323344E-2,9.2275225E-2,8.285296E-1,3.070052E-1,-2.6589537E-1,-1.279621E-1,-1.4888603E-2,-1.1030038E-1,-9.704074E-2,-2.534E-1,-4.716681E-3,-2.5772312E-1,-2.2122657E-1,-1.6082147E-1,5.9235398E-2,-3.9004692E-1,-1.5291515E-1,-2.1129563E-2,-1.1600624E-1,1.3029894E-2,1.3280494E-2,1.9164719E-1,2.2447792E-1,4.004906E-1],"split_indices":[9,3,3,9,22,70,50,23,72,70,68,66,70,9,68,72,50,68,44,1,55,17,54,0,53,0,60,53,68,55,3,9,9,68,65,58,50,0,0,47,39,0,0,0,0,0,23,0,0,52,9,68,72,22,20,61,60,53,72,0,0,0,0,0,0,0,0,0,0,0,0,0,0,0,0,0,0,0,0,0,0,0,0,0,0,0,0,0,0,0,0,0,0,0,0,0,0,0,0],"split_type":[0,0,0,0,0,0,0,0,0,0,0,0,0,0,0,0,0,0,0,0,0,0,0,0,0,0,0,0,0,0,0,0,0,0,0,0,0,0,0,0,0,0,0,0,0,0,0,0,0,0,0,0,0,0,0,0,0,0,0,0,0,0,0,0,0,0,0,0,0,0,0,0,0,0,0,0,0,0,0,0,0,0,0,0,0,0,0,0,0,0,0,0,0,0,0,0,0,0,0],"sum_hessian":[4.476E3,1.741E3,2.735E3,1.439E3,3.02E2,2.72E2,2.463E3,5.94E2,8.45E2,2.19E2,8.3E1,2.03E2,6.9E1,2.172E3,2.91E2,3.75E2,2.19E2,8.3E2,1.5E1,2.03E2,1.6E1,7E0,7.6E1,1.35E2,6.8E1,2.2E1,4.7E1,1.46E3,7.12E2,8.4E1,2.07E2,3.65E2,1E1,1.65E2,5.4E1,7.36E2,9.4E1,3E0,1.2E1,3.3E1,1.7E2,8E0,8E0,3E0,4E0,1.8E1,5.8E1,6.5E1,3E0,3.9E1,8E0,9.31E2,5.29E2,6.69E2,4.3E1,4.8E1,3.6E1,1.06E2,1.01E2,5.9E1,3.06E2,3E0,7E0,1.62E2,3E0,1.7E1,3.7E1,2.13E2,5.23E2,1.1E1,8.3E1,1.8E1,1.5E1,9.2E1,7.8E1,3E0,5E0,5.5E1,3E0,3.2E1,7E0,3E0,5E0,9.03E2,2.8E1,5.07E2,2.2E1,2.97E2,3.72E2,3E0,4E1,4.3E1,5E0,1E1,2.6E1,4.8E1,5.8E1,6.7E1,3.4E1],"tree_param":{"num_deleted":"0","num_feature":"84","num_nodes":"99","size_leaf_vector":"1"}},{"base_weights":[1.112199E-2,6.2884645E0,-4.0162425E0,3.968436E0,1.6851423E1,-1.3761485E1,-2.5525448E0,7.040233E0,2.338326E0,1.4551835E1,2.23607E1,-6.586087E0,-1.703392E1,-3.4521422E0,3.7386708E0,5.2982783E0,1.0008974E1,2.6210668E0,-1.1908727E1,8.723583E0,1.5344374E1,1.1714913E1,2.4792192E1,-3.118376E0,-7.9470425E0,-1.8144253E1,-1.4162079E1,-1.7773724E0,-5.710445E0,-2.647849E0,6.1995864E0,5.689917E0,-6.871704E0,1.5032152E1,8.944498E0,2.0161386E0,7.1185565E0,-1.0517595E-1,-1.3182907E1,4.0076116E-1,6.481715E0,1.3761788E1,1.8807621E1,4.765839E0,4.2777112E-1,7.7190423E-1,3.484705E-1,-4.167203E0,2.7862135E-1,-8.661547E0,-5.372715E0,-1.9182465E1,-3.8028282E-1,-4.5241082E-1,-2.865335E-1,-2.804124E0,7.802419E-2,-4.588441E0,-6.877453E0,-4.1839213E0,-5.909103E-1,8.527133E0,2.8036766E0,2.9937473E-1,1.375304E-1,-2.7180883E-1,-2.667121E-2,1.3564079E-1,4.9221295E-1,1.1855274E-1,2.8687552E-1,2.1553675E-2,1.1873221E-1,-2.9123488E-1,2.8091785E-1,-4.5142692E-1,-2.1293369E-1,2.1344861E-1,4.17583E-2,3.3811197E-1,4.75878E-1,6.644515E-1,4.4263205E-1,5.9071735E-2,1.7788689E-1,-1.3764821E-1,-1.604302E-2,4.7629315E-2,-3.2100756E-2,-1.2210448E-1,-2.662501E-1,-5.5347178E-2,-1.7353183E-1,-5.802109E-1,-2.3862654E-1,-1.8200701E-1,-7.705014E-2,-3.4343127E-2,3.2464948E-2,-1.5868744E-1,-1.035717E-1,-2.1760441E-1,-9.604584E-2,-1.3268602E-1,-1.1457753E-2,-1.422448E-1,1.2573394E-2,1.10807806E-1,2.8808653E-1,-9.695052E-2,1.1141086E-1],"categories":[],"categories_nodes":[],"categories_segments":[],"categories_sizes":[],"default_left":[0,0,0,0,0,0,0,0,0,0,0,0,0,0,0,0,0,0,0,0,0,0,0,0,0,0,0,0,0,0,0,0,0,0,0,0,0,0,0,0,0,0,0,0,0,0,0,0,0,0,0,0,0,0,0,0,0,0,0,0,0,0,0,0,0,0,0,0,0,0,0,0,0,0,0,0,0,0,0,0,0,0,0,0,0,0,0,0,0,0,0,0,0,0,0,0,0,0,0,0,0,0,0,0,0,0,0,0,0,0,0],"id":4,"left_children":[1,3,5,7,9,11,13,15,17,19,21,23,25,27,29,31,33,35,37,39,41,43,45,47,49,51,53,55,57,59,61,63,65,67,69,71,73,-1,75,-1,77,79,81,83,-1,-1,-1,85,87,89,91,93,-1,-1,-1,95,97,99,101,103,105,107,109,-1,-1,-1,-1,-1,-1,-1,-1,-1,-1,-1,-1,-1,-1,-1,-1,-1,-1,-1,-1,-1,-1,-1,-1,-1,-1,-1,-1,-1,-1,-1,-1,-1,-1,-1,-1,-1,-1,-1,-1,-1,-1,-1,-1,-1,-1,-1,-1],"loss_changes":[1.127796E5,4.2622375E4,3.870671E4,7.1414785E3,3.4762812E3,8.1510156E3,1.3401334E4,2.4798281E3,3.8214233E3,8.360117E2,1.8737617E3,4.962661E2,3.8135156E2,7.81041E3,4.685332E3,1.5621631E3,7.640137E2,2.4810127E3,1.2541089E2,1.8308667E2,6.822383E2,2.3900708E2,4.278789E2,1.2543805E2,7.5458496E1,5.9116016E2,9.446875E1,2.2688135E3,1.1032891E3,2.591637E2,1.6573105E3,1.3819053E3,1.2341049E2,3.1086768E2,4.1425586E2,2.04448E3,4.2355776E3,0E0,1.1237793E1,0E0,5.918463E1,4.6177344E2,2.8103906E2,5.31691E0,0E0,0E0,0E0,3.5826965E1,1.9423134E1,2.520996E0,1.3691589E1,1.11171875E1,0E0,0E0,0E0,5.6458154E2,5.2429956E2,3.3208496E2,5.5536914E2,3.9657593E1,1.610523E2,6.018965E2,5.09659E2,0E0,0E0,0E0,0E0,0E0,0E0,0E0,0E0,0E0,0E0,0E0,0E0,0E0,0E0,0E0,0E0,0E0,0E0,0E0,0E0,0E0,0E0,0E0,0E0,0E0,0E0,0E0,0E0,0E0,0E0,0E0,0E0,0E0,0E0,0E0,0E0,0E0,0E0,0E0,0E0,0E0,0E0,0E0,0E0,0E0,0E0,0E0,0E0],"parents":[2147483647,0,0,1,1,2,2,3,3,4,4,5,5,6,6,7,7,8,8,9,9,10,10,11,11,12,12,13,13,14,14,15,15,16,16,17,17,18,18,19,19,20,20,21,21,22,22,23,23,24,24,25,25,26,26,27,27,28,28,29,29,30,30,31,31,32,32,33,33,34,34,35,35,36,36,38,38,40,40,41,41,42,42,43,43,47,47,48,48,49,49,50,50,51,51,55,55,56,56,57,57,58,58,59,59,60,60,61,61,62,62],"right_children":[2,4,6,8,10,12,14,16,18,20,22,24,26,28,30,32,34,36,38,40,42,44,46,48,50,52,54,56,58,60,62,64,66,68,70,72,74,-1,76,-1,78,80,82,84,-1,-1,-1,86,88,90,92,94,-1,-1,-1,96,98,100,102,104,106,108,110,-1,-1,-1,-1,-1,-1,-1,-1,-1,-1,-1,-1,-1,-1,-1,-1,-1,-1,-1,-1,-1,-1,-1,-1,-1,-1,-1,-1,-1,-1,-1,-1,-1,-1,-1,-1,-1,-1,-1,-1,-1,-1,-1,-1,-1,-1,-1,-1],"split_conditions":[4.42E2,5.4620487E1,4.2152138E1,3.92E2,4.152575E2,1E0,7.1894903E0,4.264882E2,6E0,1.3476071E1,8.5234E2,5.11E2,1E0,5E2,1E0,6E0,5E0,1E0,-6.0448074E-3,3.7205745E-2,3.5192368E1,1E0,4.3500558E-2,3.3722363E1,8.263862E1,3E0,1.8614066E2,3.2833958E1,5.3E2,2.9034597E1,4.89E2,3.38E2,2.6797352E1,4.840768E1,4.038597E1,3.9059948E1,4.916E0,-1.0517595E-1,6.0767794E-1,4.0076116E-1,3.14E2,1.6174238E1,3.801945E0,3.3923454E1,4.2777112E-1,7.7190423E-1,3.484705E-1,4.4567285E0,-1.4617154E-3,3.765287E0,1E0,4.364331E1,-3.8028282E-1,-4.5241082E-1,-2.865335E-1,2.5747757E1,3.2813255E1,1.1923386E-2,3.5882706E1,6.117107E-1,-3.5753431E0,2E0,2E0,2.9937473E-1,1.375304E-1,-2.7180883E-1,-2.667121E-2,1.3564079E-1,4.9221295E-1,1.1855274E-1,2.8687552E-1,2.1553675E-2,1.1873221E-1,-2.9123488E-1,2.8091785E-1,-4.5142692E-1,-2.1293369E-1,2.1344861E-1,4.17583E-2,3.3811197E-1,4.75878E-1,6.644515E-1,4.4263205E-1,5.9071735E-2,1.7788689E-1,-1.3764821E-1,-1.604302E-2,4.7629315E-2,-3.2100756E-2,-1.2210448E-1,-2.662501E-1,-5.5347178E-2,-1.7353183E-1,-5.802109E-1,-2.3862654E-1,-1.8200701E-1,-7.705014E-2,-3.4343127E-2,3.2464948E-2,-1.5868744E-1,-1.035717E-1,-2.1760441E-1,-9.604584E-2,-1.3268602E-1,-1.1457753E-2,-1.422448E-1,1.2573394E-2,1.10807806E-1,2.8808653E-1,-9.695052E-2,1.1141086E-1],"split_indices":[9,3,3,9,22,68,50,23,72,50,75,9,66,9,68,72,70,68,44,47,55,68,40,58,76,70,76,55,9,55,9,9,4,18,58,58,50,0,21,0,8,47,59,55,0,0,0,1,45,24,16,58,0,0,0,74,56,40,56,14,60,70,70,0,0,0,0,0,0,0,0,0,0,0,0,0,0,0,0,0,0,0,0,0,0,0,0,0,0,0,0,0,0,0,0,0,0,0,0,0,0,0,0,0,0,0,0,0,0,0,0],"split_type":[0,0,0,0,0,0,0,0,0,0,0,0,0,0,0,0,0,0,0,0,0,0,0,0,0,0,0,0,0,0,0,0,0,0,0,0,0,0,0,0,0,0,0,0,0,0,0,0,0,0,0,0,0,0,0,0,0,0,0,0,0,0,0,0,0,0,0,0,0,0,0,0,0,0,0,0,0,0,0,0,0,0,0,0,0,0,0,0,0,0,0,0,0,0,0,0,0,0,0,0,0,0,0,0,0,0,0,0,0,0,0],"sum_hessian":[4.458E3,1.742E3,2.716E3,1.43E3,3.12E2,3.53E2,2.363E3,4.94E2,9.36E2,2.24E2,8.8E1,1.12E2,2.41E2,2.068E3,2.95E2,3.14E2,1.8E2,9.19E2,1.7E1,2.9E1,1.95E2,1.8E1,7E1,3.3E1,7.9E1,1.68E2,7.3E1,1.189E3,8.79E2,8.2E1,2.13E2,3.05E2,9E0,2.8E1,1.52E2,8.12E2,1.07E2,3E0,1.4E1,7E0,2.2E1,1.39E2,5.6E1,6E0,1.2E1,6.4E1,6E0,2.5E1,8E0,5.9E1,2E1,1.38E2,3E1,5.8E1,1.5E1,7.65E2,4.24E2,4.52E2,4.27E2,4.6E1,3.6E1,1.25E2,8.8E1,6E1,2.45E2,6E0,3E0,4E0,2.4E1,1.8E1,1.34E2,4.88E2,3.24E2,1.2E1,9.5E1,9E0,5E0,1.9E1,3E0,6.8E1,7.1E1,2.7E1,2.9E1,3E0,3E0,2.2E1,3E0,4E0,4E0,4E0,5.5E1,3E0,1.7E1,1.35E2,3E0,4.9E1,7.16E2,1.91E2,2.33E2,2.76E2,1.76E2,3.86E2,4.1E1,4.3E1,3E0,6E0,3E1,2.4E1,1.01E2,1.1E1,7.7E1],"tree_param":{"num_deleted":"0","num_feature":"84","num_nodes":"111","size_leaf_vector":"1"}},{"base_weights":[4.7635357E-3,-1.5727224E0,1.4216669E1,-1.4265861E1,-4.910765E-1,1.2119939E1,2.1007929E1,-1.7228079E1,-7.5438156E0,-3.3579974E0,3.1477997E0,6.381874E0,1.3516516E1,2.3029087E1,8.245235E0,-1.4368946E1,-1.8600294E1,-3.3817964E0,-9.350384E0,-4.024175E0,1.642435E0,1.6782799E0,6.2637725E0,3.2812831E0,8.68558E0,9.014149E0,1.5443305E1,1.8919819E1,2.6126066E1,5.7890322E-2,2.825841E-1,-1.5098263E1,-2.9932964E-1,-5.668488E-1,-3.179108E-1,-5.342503E0,1.4705188E0,-1.1473913E1,-7.4523664E0,-5.4020033E0,-2.578067E0,-3.534335E0,4.5697827E0,7.3156303E-1,5.229496E0,3.2042058E0,7.5930576E0,2.1378963E-1,4.6214724E0,3.585036E0,1.0225508E1,1.2319754E1,7.022112E0,1.3386429E1,1.8539698E1,3.9789745E-1,6.20159E-1,3.0901098E-1,8.0573136E-1,-4.615357E-1,-1.8517339E-1,-1.9344029E-1,-5.0034624E-2,-1.4300337E-2,1.0221193E-1,-3.6129585E-1,-1.2757155E-1,-2.3956853E-1,-1.20362215E-1,-1.6764484E-1,7.6210625E-2,-7.014854E-2,-3.6559552E-1,-1.8184431E-1,-7.719034E-2,-7.211343E-2,1.7011556E-1,3.2969292E-2,-2.2758341E-1,6.6637196E-2,2.6435667E-1,8.5097045E-2,2.4200746E-1,9.538431E-2,2.4885614E-1,3.744772E-2,-5.3010717E-2,5.3578664E-2,1.8895686E-1,3.783339E-2,1.7219763E-1,1.034693E-1,3.3233306E-1,1.06353834E-1,4.2730287E-1,2.5837801E-2,2.3132735E-1,2.4799058E-1,4.3395048E-1,4.450331E-1,6.473726E-1],"categories":[],"categories_nodes":[],"categories_segments":[],"categories_sizes":[],"default_left":[0,0,0,0,0,0,0,0,0,0,0,0,0,0,0,0,0,0,0,0,0,0,0,0,0,0,0,0,0,0,0,0,0,0,0,0,0,0,0,0,0,0,0,0,0,0,0,0,0,0,0,0,0,0,0,0,0,0,0,0,0,0,0,0,0,0,0,0,0,0,0,0,0,0,0,0,0,0,0,0,0,0,0,0,0,0,0,0,0,0,0,0,0,0,0,0,0,0,0,0,0],"id":5,"left_children":[1,3,5,7,9,11,13,15,17,19,21,23,25,27,29,31,33,35,37,39,41,43,45,47,49,51,53,55,57,-1,-1,59,-1,-1,-1,61,63,65,67,69,71,73,75,77,79,81,83,85,87,89,91,93,95,97,99,-1,-1,-1,-1,-1,-1,-1,-1,-1,-1,-1,-1,-1,-1,-1,-1,-1,-1,-1,-1,-1,-1,-1,-1,-1,-1,-1,-1,-1,-1,-1,-1,-1,-1,-1,-1,-1,-1,-1,-1,-1,-1,-1,-1,-1,-1],"loss_changes":[1.0041751E5,5.533695E4,5.9836016E3,6.102297E3,3.87878E4,2.6353438E3,2.37875E3,4.497539E2,6.9815967E2,6.9375723E3,7.4853096E3,4.5842773E2,2.1849648E3,3.7582422E2,9.282849E1,1.722168E1,2.98125E1,3.217627E2,1.4404199E2,3.6347285E3,3.7447913E3,3.7433757E3,2.094504E3,1.3115909E2,2.5250122E2,4.35958E2,8.409883E2,1.3081055E1,1.16015625E2,0E0,0E0,1.5498047E1,0E0,0E0,0E0,7.771173E1,4.261596E1,4.119995E1,2.3841064E1,1.4095059E3,2.0244385E3,1.9231018E2,1.2300784E3,2.7081516E3,2.495583E3,2.5221191E2,1.0877246E3,2.6769306E1,8.850653E1,4.5331284E1,1.1015747E2,4.3552588E2,2.3233081E2,4.8155078E2,3.2902148E2,0E0,0E0,0E0,0E0,0E0,0E0,0E0,0E0,0E0,0E0,0E0,0E0,0E0,0E0,0E0,0E0,0E0,0E0,0E0,0E0,0E0,0E0,0E0,0E0,0E0,0E0,0E0,0E0,0E0,0E0,0E0,0E0,0E0,0E0,0E0,0E0,0E0,0E0,0E0,0E0,0E0,0E0,0E0,0E0,0E0,0E0],"parents":[2147483647,0,0,1,1,2,2,3,3,4,4,5,5,6,6,7,7,8,8,9,9,10,10,11,11,12,12,13,13,14,14,15,15,16,16,17,17,18,18,19,19,20,20,21,21,22,22,23,23,24,24,25,25,26,26,27,27,28,28,31,31,35,35,36,36,37,37,38,38,39,39,40,40,41,41,42,42,43,43,44,44,45,45,46,46,47,47,48,48,49,49,50,50,51,51,52,52,53,53,54,54],"right_children":[2,4,6,8,10,12,14,16,18,20,22,24,26,28,30,32,34,36,38,40,42,44,46,48,50,52,54,56,58,-1,-1,60,-1,-1,-1,62,64,66,68,70,72,74,76,78,80,82,84,86,88,90,92,94,96,98,100,-1,-1,-1,-1,-1,-1,-1,-1,-1,-1,-1,-1,-1,-1,-1,-1,-1,-1,-1,-1,-1,-1,-1,-1,-1,-1,-1,-1,-1,-1,-1,-1,-1,-1,-1,-1,-1,-1,-1,-1,-1,-1,-1,-1,-1,-1],"split_conditions":[5.3855247E1,4.1455585E1,4.490509E2,3E0,3.2873905E1,7.4828217E2,3E0,2E0,4E0,3.4210056E2,4.200815E1,3.448294E1,2.9860416E1,3.7610428E1,-7.818315E-1,2.3907766E1,4.364331E1,3.2089893E1,5E0,2.7979744E1,1E0,7.5413566E0,4.0567184E1,7.966409E0,6.939243E0,2.5685402E1,9.116994E0,9.5542955E-1,8.5234E2,5.7890322E-2,2.825841E-1,3.137855E4,-2.9932964E-1,-5.668488E-1,-3.179108E-1,1.7013E-2,3.342137E1,8.7041943E2,6.0224575E-1,6.142857E0,4E0,4.162571E3,2E0,1E0,1E0,7.5413566E0,2.6011768E2,6.067344E-1,5E0,4.0848804E1,9.414391E1,1.6883034E1,-1.7357289E0,4.1220713E0,4E0,3.9789745E-1,6.20159E-1,3.0901098E-1,8.0573136E-1,-4.615357E-1,-1.8517339E-1,-1.9344029E-1,-5.0034624E-2,-1.4300337E-2,1.0221193E-1,-3.6129585E-1,-1.2757155E-1,-2.3956853E-1,-1.20362215E-1,-1.6764484E-1,7.6210625E-2,-7.014854E-2,-3.6559552E-1,-1.8184431E-1,-7.719034E-2,-7.211343E-2,1.7011556E-1,3.2969292E-2,-2.2758341E-1,6.6637196E-2,2.6435667E-1,8.5097045E-2,2.4200746E-1,9.538431E-2,2.4885614E-1,3.744772E-2,-5.3010717E-2,5.3578664E-2,1.8895686E-1,3.783339E-2,1.7219763E-1,1.034693E-1,3.3233306E-1,1.06353834E-1,4.2730287E-1,2.5837801E-2,2.3132735E-1,2.4799058E-1,4.3395048E-1,4.450331E-1,6.473726E-1],"split_indices":[3,3,15,70,53,75,70,69,72,75,58,58,58,58,80,53,58,57,70,53,68,50,53,50,50,34,39,46,75,0,0,73,0,0,0,41,54,15,2,29,72,73,69,68,68,50,76,14,69,55,15,78,46,1,72,0,0,0,0,0,0,0,0,0,0,0,0,0,0,0,0,0,0,0,0,0,0,0,0,0,0,0,0,0,0,0,0,0,0,0,0,0,0,0,0,0,0,0,0,0,0],"split_type":[0,0,0,0,0,0,0,0,0,0,0,0,0,0,0,0,0,0,0,0,0,0,0,0,0,0,0,0,0,0,0,0,0,0,0,0,0,0,0,0,0,0,0,0,0,0,0,0,0,0,0,0,0,0,0,0,0,0,0,0,0,0,0,0,0,0,0,0,0,0,0,0,0,0,0,0,0,0,0,0,0,0,0,0,0,0,0,0,0,0,0,0,0,0,0,0,0,0,0,0,0],"sum_hessian":[4.476E3,4.03E3,4.46E2,3.15E2,3.715E3,3.44E2,1.02E2,2.17E2,9.8E1,2.078E3,1.637E3,6.9E1,2.75E2,8.7E1,1.5E1,7.6E1,1.41E2,3.1E1,6.7E1,1.834E3,2.44E2,1.114E3,5.23E2,3.1E1,3.8E1,8.5E1,1.9E2,4.2E1,4.5E1,3E0,1.2E1,6.2E1,1.4E1,1.34E2,7E0,2.2E1,9E0,2.8E1,3.9E1,9.37E2,8.97E2,8.8E1,1.56E2,8.81E2,2.33E2,1.6E2,3.63E2,1E1,2.1E1,1E1,2.8E1,2.9E1,5.6E1,1.19E2,7.1E1,1.3E1,2.9E1,3E0,4.2E1,5.9E1,3E0,1.6E1,6E0,5E0,4E0,2.5E1,3E0,3.2E1,7E0,9.16E2,2.1E1,8.77E2,2E1,2.2E1,6.6E1,2.1E1,1.35E2,8.45E2,3.6E1,1.28E2,1.05E2,1.51E2,9E0,5.1E1,3.12E2,7E0,3E0,9E0,1.2E1,6E0,4E0,4E0,2.4E1,6E0,2.3E1,6E0,5E1,2.3E1,9.6E1,3.6E1,3.5E1],"tree_param":{"num_deleted":"0","num_feature":"84","num_nodes":"101","size_leaf_vector":"1"}},{"base_weights":[-1.0199333E-2,5.8692393E0,-3.8197103E0,3.6922007E0,1.5956751E1,-1.4307947E1,-2.5309029E0,3.9930246E0,-1.09640045E1,1.3603541E1,2.1305374E1,-1.670354E1,-8.200088E0,-3.3608668E0,3.332242E0,6.4946303E0,2.2978466E0,-3.6583304E-1,-5.706456E-4,7.9303017E0,1.4537522E1,1.1180002E1,2.336049E1,-5.4520494E-1,-1.3506513E1,-4.480404E0,-9.214721E0,-4.86454E0,-1.0790887E0,-2.9531062E0,5.8328648E0,4.9556904E0,9.185277E0,1.7357396E0,6.6491504E0,5.726061E0,1.0708077E1,1.183028E1,1.675151E1,1.122758E-1,4.0511915E-1,7.1918356E-1,2.6979795E-1,-1.4405605E1,-2.7399978E-1,-6.0071917E0,-4.0229553E-1,-9.789742E0,-3.5399103E0,-3.6364803E0,-6.190795E0,-8.1387717E-1,-8.101912E0,-4.1595917E0,-2.718591E-1,3.5280144E0,9.481994E0,3.3213085E-1,1.3086922E-1,2.3573928E-1,3.884192E-1,-1.4332537E-2,7.498674E-2,-2.6558918E-1,2.7030465E-1,1.9592552E-1,4.263066E-2,3.7122527E-1,1.4620563E-1,1.7964742E-1,3.837585E-1,4.0492022E-1,5.553387E-1,-4.4402128E-1,-1.9791456E-1,-2.0275308E-1,-8.285158E-2,2.4599677E-2,-4.6047788E-2,-3.2436004E-1,-2.1657994E-1,-1.427707E-1,-2.4764067E-2,-1.04102984E-1,-2.3876804E-1,-1.7593916E-1,-3.2829714E-1,-5.0239902E-2,3.076843E-2,-7.4076556E-2,-3.4633598E-1,-1.803535E-1,-9.4023556E-2,-1.0666093E-1,2.4956333E-2,1.3677381E-1,-9.8885626E-2,1.0822997E-1,3.5815373E-1],"categories":[],"categories_nodes":[],"categories_segments":[],"categories_sizes":[],"default_left":[0,0,0,0,0,0,0,0,0,0,0,0,0,0,0,0,0,0,0,0,0,0,0,0,0,0,0,0,0,0,0,0,0,0,0,0,0,0,0,0,0,0,0,0,0,0,0,0,0,0,0,0,0,0,0,0,0,0,0,0,0,0,0,0,0,0,0,0,0,0,0,0,0,0,0,0,0,0,0,0,0,0,0,0,0,0,0,0,0,0,0,0,0,0,0,0,0,0,0],"id":6,"left_children":[1,3,5,7,9,11,13,15,17,19,21,23,25,27,29,31,33,-1,-1,35,37,39,41,-1,43,45,47,49,51,53,55,57,59,61,63,65,67,69,71,-1,-1,-1,-1,73,-1,75,77,79,81,83,85,87,89,91,93,95,97,-1,-1,-1,-1,-1,-1,-1,-1,-1,-1,-1,-1,-1,-1,-1,-1,-1,-1,-1,-1,-1,-1,-1,-1,-1,-1,-1,-1,-1,-1,-1,-1,-1,-1,-1,-1,-1,-1,-1,-1,-1,-1],"loss_changes":[1.0011773E5,3.8503984E4,3.6608043E4,6.446215E3,3.4789531E3,4.1279297E3,1.1780843E4,5.9954824E3,3.9448706E2,9.909414E2,1.5261484E3,6.1941797E2,2.6179297E2,7.2596133E3,4.749458E3,2.2994688E3,2.056356E3,0E0,0E0,1.15980225E2,8.208594E2,2.4050488E2,3.341875E2,0E0,8.299805E1,1.2896082E2,1.6235107E2,2.0433262E3,1.5593726E3,2.7723505E2,1.7597246E3,1.2580312E3,8.7435547E2,1.2761423E3,3.6516387E3,6.2443604E1,3.7324585E1,3.841631E2,1.8861523E2,0E0,0E0,0E0,0E0,2.6652344E1,0E0,7.8898315E0,1.2413901E1,3.5654297E1,2.1118752E1,4.356162E2,8.4821875E2,1.2923927E3,5.458706E2,8.292102E1,1.0826874E2,9.6920605E2,1.1227666E3,0E0,0E0,0E0,0E0,0E0,0E0,0E0,0E0,0E0,0E0,0E0,0E0,0E0,0E0,0E0,0E0,0E0,0E0,0E0,0E0,0E0,0E0,0E0,0E0,0E0,0E0,0E0,0E0,0E0,0E0,0E0,0E0,0E0,0E0,0E0,0E0,0E0,0E0,0E0,0E0,0E0,0E0],"parents":[2147483647,0,0,1,1,2,2,3,3,4,4,5,5,6,6,7,7,8,8,9,9,10,10,11,11,12,12,13,13,14,14,15,15,16,16,19,19,20,20,21,21,22,22,24,24,25,25,26,26,27,27,28,28,29,29,30,30,31,31,32,32,33,33,34,34,35,35,36,36,37,37,38,38,43,43,45,45,46,46,47,47,48,48,49,49,50,50,51,51,52,52,53,53,54,54,55,55,56,56],"right_children":[2,4,6,8,10,12,14,16,18,20,22,24,26,28,30,32,34,-1,-1,36,38,40,42,-1,44,46,48,50,52,54,56,58,60,62,64,66,68,70,72,-1,-1,-1,-1,74,-1,76,78,80,82,84,86,88,90,92,94,96,98,-1,-1,-1,-1,-1,-1,-1,-1,-1,-1,-1,-1,-1,-1,-1,-1,-1,-1,-1,-1,-1,-1,-1,-1,-1,-1,-1,-1,-1,-1,-1,-1,-1,-1,-1,-1,-1,-1,-1,-1,-1,-1],"split_conditions":[4.42E2,5.4620487E1,4.1455585E1,6E0,4.152575E2,3E0,7.1894903E0,3.99E2,3.7147053E-2,3.9549713E0,8.5234E2,1E0,4E0,2.99295E1,1E0,4.264882E2,1E0,-3.6583304E-1,-5.706456E-4,1.6543098E1,3.8643708E0,1E0,4.7175694E-2,-5.4520494E-1,2.4401155E1,9.5676017E-1,2.7E1,5.17E2,4E0,3.0875153E1,7.15986E2,3.21E2,3.8450818E2,3.4319992E1,4.916E0,4E0,5.8814657E-1,3.1274849E1,-4.284885E-3,1.122758E-1,4.0511915E-1,7.1918356E-1,2.6979795E-1,6.129924E-1,-2.7399978E-1,2.720251E1,5.2455035E-3,1.9586363E0,4.0829605E1,1E0,1E0,3.7E1,1E0,4.162571E3,3E1,5.51E2,2E0,3.3213085E-1,1.3086922E-1,2.3573928E-1,3.884192E-1,-1.4332537E-2,7.498674E-2,-2.6558918E-1,2.7030465E-1,1.9592552E-1,4.263066E-2,3.7122527E-1,1.4620563E-1,1.7964742E-1,3.837585E-1,4.0492022E-1,5.553387E-1,-4.4402128E-1,-1.9791456E-1,-2.0275308E-1,-8.285158E-2,2.4599677E-2,-4.6047788E-2,-3.2436004E-1,-2.1657994E-1,-1.427707E-1,-2.4764067E-2,-1.04102984E-1,-2.3876804E-1,-1.7593916E-1,-3.2829714E-1,-5.0239902E-2,3.076843E-2,-7.4076556E-2,-3.4633598E-1,-1.803535E-1,-9.4023556E-2,-1.0666093E-1,2.4956333E-2,1.3677381E-1,-9.8885626E-2,1.0822997E-1,3.5815373E-1],"split_indices":[9,3,3,72,22,70,50,9,41,24,75,66,72,53,68,23,68,0,0,47,46,68,40,0,53,60,70,9,72,53,75,9,75,58,50,37,14,57,45,0,0,0,0,20,0,53,40,39,13,68,68,12,68,73,12,9,70,0,0,0,0,0,0,0,0,0,0,0,0,0,0,0,0,0,0,0,0,0,0,0,0,0,0,0,0,0,0,0,0,0,0,0,0,0,0,0,0,0,0],"split_type":[0,0,0,0,0,0,0,0,0,0,0,0,0,0,0,0,0,0,0,0,0,0,0,0,0,0,0,0,0,0,0,0,0,0,0,0,0,0,0,0,0,0,0,0,0,0,0,0,0,0,0,0,0,0,0,0,0,0,0,0,0,0,0,0,0,0,0,0,0,0,0,0,0,0,0,0,0,0,0,0,0,0,0,0,0,0,0,0,0,0,0,0,0,0,0,0,0,0,0],"sum_hessian":[4.467E3,1.756E3,2.711E3,1.446E3,3.1E2,2.95E2,2.416E3,1.418E3,2.8E1,2.19E2,9.1E1,2.1E2,8.5E1,2.117E3,2.99E2,5.71E2,8.47E2,2.5E1,3E0,3.3E1,1.86E2,1.7E1,7.4E1,1.39E2,7.1E1,2E1,6.5E1,1.275E3,8.42E2,8.5E1,2.14E2,3.66E2,2.05E2,7.52E2,9.5E1,2.1E1,1.2E1,8.8E1,9.8E1,5E0,1.2E1,7E1,4E0,5.6E1,1.5E1,1.4E1,6E0,5.8E1,7E0,6.65E2,6.1E2,8.13E2,2.9E1,5.8E1,2.7E1,1.33E2,8.1E1,3E1,3.36E2,1.55E2,5E1,1.93E2,5.59E2,1.2E1,8.3E1,1.7E1,4E0,8E0,4E0,1.4E1,7.4E1,3.9E1,5.9E1,5.2E1,4E0,1E1,4E0,3E0,3E0,3.8E1,2E1,4E0,3E0,6.43E2,2.2E1,5.74E2,3.6E1,5.54E2,2.59E2,1.2E1,1.7E1,1.8E1,4E1,6E0,2.1E1,1.16E2,1.7E1,2.5E1,5.6E1],"tree_param":{"num_deleted":"0","num_feature":"84","num_nodes":"99","size_leaf_vector":"1"}},{"base_weights":[-1.7043246E-2,5.0915914E0,-4.106268E0,2.8546293E0,1.3830821E1,-1.401905E1,-2.8618026E0,3.1662261E0,-1.0579043E1,1.1280036E1,1.821105E1,-1.5920175E1,-7.8392487E0,-3.5995173E0,2.6930554E0,6.001251E0,1.7364523E0,-1.166114E1,2.875434E-2,1.2594834E1,5.112115E0,1.5166447E1,7.3595786E-1,-1.7588728E1,-1.2988943E1,-8.204924E0,1.5599619E-3,-2.0433922E0,-5.3341594E0,-2.9738898E0,5.083384E0,4.3136716E0,8.859592E0,1.2452663E0,6.0201025E0,-1.2183347E1,-1.2570772E-1,1.0324462E1,1.6485352E1,2.5725136E0,8.112601E0,6.3129487E0,1.5708468E1,-5.3238595E-1,-2.165917E-1,-4.4240668E-1,-1.0284198E1,-3.2773602E0,-8.615837E0,-3.0037699E0,-3.933464E-1,-5.0505934E0,-1.1679978E1,-4.4968715E0,-7.207707E-1,2.069813E0,7.4619994E0,2.4168663E-1,1.1002924E-1,2.3608758E-1,3.651757E-1,-3.492443E-2,5.826138E-2,-2.7674267E-1,2.5437555E-1,-4.4228294E-1,-2.7020907E-1,3.6270064E-1,1.66678E-1,5.7185584E-1,3.4213132E-1,3.183817E-2,1.1724188E-1,9.413266E-2,2.7968276E-1,8.183048E-2,2.2464815E-1,1.3159363E-1,4.7997692E-1,-3.3046353E-1,-8.967168E-2,-1.218951E-1,-4.0639576E-2,-2.752777E-1,-1.4016624E-1,-8.21229E-2,-2.3461206E-1,-5.925901E-2,1.8048678E-2,-1.821359E-1,-1.20168254E-1,-3.8934153E-1,-9.471197E-3,-1.8820877E-1,-1.05615176E-1,-1.2591422E-1,7.781165E-3,5.0270604E-3,1.558709E-1,1.6258714E-1,3.426046E-1],"categories":[],"categories_nodes":[],"categories_segments":[],"categories_sizes":[],"default_left":[0,0,0,0,0,0,0,0,0,0,0,0,0,0,0,0,0,0,0,0,0,0,0,0,0,0,0,0,0,0,0,0,0,0,0,0,0,0,0,0,0,0,0,0,0,0,0,0,0,0,0,0,0,0,0,0,0,0,0,0,0,0,0,0,0,0,0,0,0,0,0,0,0,0,0,0,0,0,0,0,0,0,0,0,0,0,0,0,0,0,0,0,0,0,0,0,0,0,0,0,0],"id":7,"left_children":[1,3,5,7,9,11,13,15,17,19,21,23,25,27,29,31,33,35,-1,37,39,41,-1,43,45,47,-1,49,51,53,55,57,59,61,63,65,-1,67,69,71,73,75,77,-1,-1,-1,79,81,83,85,87,89,91,93,95,97,99,-1,-1,-1,-1,-1,-1,-1,-1,-1,-1,-1,-1,-1,-1,-1,-1,-1,-1,-1,-1,-1,-1,-1,-1,-1,-1,-1,-1,-1,-1,-1,-1,-1,-1,-1,-1,-1,-1,-1,-1,-1,-1,-1,-1],"loss_changes":[9.404821E4,3.906541E4,3.0782898E4,6.7273516E3,4.2389766E3,3.0800195E3,9.126404E3,6.3082217E3,4.745984E2,2.0205312E3,2.272539E3,6.85625E2,1.9993652E2,5.282287E3,3.5653403E3,2.460412E3,2.1744817E3,5.084326E1,0E0,1.6339961E3,3.3613025E2,3.4352148E2,0E0,1.5902344E1,1.5977539E2,8.788965E1,0E0,1.6416401E3,1.5771641E3,2.634643E2,1.2974458E3,7.5483496E2,4.8366895E2,1.5724143E3,4.1096895E3,4.4023438E1,0E0,1.0701807E3,6.692988E2,5.030748E1,8.306665E1,3.136078E0,2.0833398E2,0E0,0E0,0E0,1.4785767E2,1.9917755E0,6.434473E1,8.066924E2,6.056845E2,9.112363E2,5.591343E2,4.5578064E1,1.1656636E2,4.9412866E2,7.324282E2,0E0,0E0,0E0,0E0,0E0,0E0,0E0,0E0,0E0,0E0,0E0,0E0,0E0,0E0,0E0,0E0,0E0,0E0,0E0,0E0,0E0,0E0,0E0,0E0,0E0,0E0,0E0,0E0,0E0,0E0,0E0,0E0,0E0,0E0,0E0,0E0,0E0,0E0,0E0,0E0,0E0,0E0,0E0,0E0],"parents":[2147483647,0,0,1,1,2,2,3,3,4,4,5,5,6,6,7,7,8,8,9,9,10,10,11,11,12,12,13,13,14,14,15,15,16,16,17,17,19,19,20,20,21,21,23,23,24,24,25,25,27,27,28,28,29,29,30,30,31,31,32,32,33,33,34,34,35,35,37,37,38,38,39,39,40,40,41,41,42,42,46,46,47,47,48,48,49,49,50,50,51,51,52,52,53,53,54,54,55,55,56,56],"right_children":[2,4,6,8,10,12,14,16,18,20,22,24,26,28,30,32,34,36,-1,38,40,42,-1,44,46,48,-1,50,52,54,56,58,60,62,64,66,-1,68,70,72,74,76,78,-1,-1,-1,80,82,84,86,88,90,92,94,96,98,100,-1,-1,-1,-1,-1,-1,-1,-1,-1,-1,-1,-1,-1,-1,-1,-1,-1,-1,-1,-1,-1,-1,-1,-1,-1,-1,-1,-1,-1,-1,-1,-1,-1,-1,-1,-1,-1,-1,-1,-1,-1,-1,-1,-1],"split_conditions":[4.51E2,5.3588654E1,6.0122174E2,6E0,5.775081E1,3E0,7.1894903E0,3.99E2,5.1035367E-2,7E0,4.152575E2,1E0,1.2491761E1,5E2,1E0,4.264882E2,1E0,3.235932E1,2.875434E-2,2E0,4.4646587E1,2.9796059E1,7.3595786E-1,4.364331E1,2.8330757E1,4E0,1.5599619E-3,3.259954E1,1E0,2.9034597E1,2.7620163E1,3.38E2,3.8450818E2,3.2093094E1,4.916E0,3E0,-1.2570772E-1,3.86E2,4.21E2,3.8206995E2,6.581785E0,-2.7287863E-2,-4.5708046E0,-5.3238595E-1,-2.165917E-1,-4.4240668E-1,-1.1143427E0,4.2E0,1.0211024E0,4E0,4.0479302E0,2.5950457E1,4.7833138E1,2.5238262E1,-3.1451482E-2,7.15986E2,5.3300648E1,2.4168663E-1,1.1002924E-1,2.3608758E-1,3.651757E-1,-3.492443E-2,5.826138E-2,-2.7674267E-1,2.5437555E-1,-4.4228294E-1,-2.7020907E-1,3.6270064E-1,1.66678E-1,5.7185584E-1,3.4213132E-1,3.183817E-2,1.1724188E-1,9.413266E-2,2.7968276E-1,8.183048E-2,2.2464815E-1,1.3159363E-1,4.7997692E-1,-3.3046353E-1,-8.967168E-2,-1.218951E-1,-4.0639576E-2,-2.752777E-1,-1.4016624E-1,-8.21229E-2,-2.3461206E-1,-5.925901E-2,1.8048678E-2,-1.821359E-1,-1.20168254E-1,-3.8934153E-1,-9.471197E-3,-1.8820877E-1,-1.05615176E-1,-1.2591422E-1,7.781165E-3,5.0270604E-3,1.558709E-1,1.6258714E-1,3.426046E-1],"split_indices":[9,3,77,72,3,70,50,9,41,70,15,66,7,9,68,23,68,78,0,70,57,53,0,58,54,72,0,58,68,55,56,9,75,55,50,70,0,9,9,15,7,45,38,0,0,0,39,29,10,72,25,57,3,53,40,75,3,0,0,0,0,0,0,0,0,0,0,0,0,0,0,0,0,0,0,0,0,0,0,0,0,0,0,0,0,0,0,0,0,0,0,0,0,0,0,0,0,0,0,0,0],"split_type":[0,0,0,0,0,0,0,0,0,0,0,0,0,0,0,0,0,0,0,0,0,0,0,0,0,0,0,0,0,0,0,0,0,0,0,0,0,0,0,0,0,0,0,0,0,0,0,0,0,0,0,0,0,0,0,0,0,0,0,0,0,0,0,0,0,0,0,0,0,0,0,0,0,0,0,0,0,0,0,0,0,0,0,0,0,0,0,0,0,0,0,0,0,0,0,0,0,0,0,0,0],"sum_hessian":[4.499E3,2E3,2.499E3,1.594E3,4.06E2,2.77E2,2.222E3,1.559E3,3.5E1,2.6E2,1.46E2,2.1E2,6.7E1,1.962E3,2.6E2,5.21E2,1.038E3,3.2E1,3E0,2.13E2,4.7E1,1.02E2,4.4E1,1.29E2,8.1E1,6.4E1,3E0,1.036E3,9.26E2,7.7E1,1.83E2,3.3E2,1.91E2,9.33E2,1.05E2,2.9E1,3E0,1.38E2,7.5E1,2.7E1,2E1,7E0,9.5E1,1.26E2,3E0,4.5E1,3.6E1,6E0,5.8E1,6.54E2,3.82E2,8.89E2,3.7E1,4.5E1,3.2E1,8.2E1,1.01E2,4.6E1,2.84E2,1.51E2,4E1,2.09E2,7.24E2,1.4E1,9.1E1,1.3E1,1.6E1,9.9E1,3.9E1,4.7E1,2.8E1,1.4E1,1.3E1,5E0,1.5E1,3E0,4E0,3E0,9.2E1,3.2E1,4E0,3E0,3E0,4.9E1,9E0,6.22E2,3.2E1,1.47E2,2.35E2,4.46E2,4.43E2,3.3E1,4E0,1.3E1,3.2E1,6E0,2.6E1,5.2E1,3E1,6.9E1,3.2E1],"tree_param":{"num_deleted":"0","num_feature":"84","num_nodes":"101","size_leaf_vector":"1"}},{"base_weights":[-2.4216859E-2,4.8949604E0,-4.02661E0,3.0419593E0,1.4774325E1,-1.3571808E1,-2.7930505E0,5.691857E0,1.296861E0,1.2769812E1,1.9867954E1,-1.5520571E1,-7.549481E0,-3.5343738E0,2.576731E0,4.2174087E0,8.361094E0,1.6293128E0,-1.2459171E1,1.0812163E1,1.657285E1,1.6675661E1,7.5868905E-1,-1.2812388E1,-1.7061653E1,-7.881535E0,1.5287576E-3,-4.7500086E0,-1.4399332E0,-2.9290237E0,5.108313E0,2.8738487E0,6.9012284E0,7.197492E0,1.2020672E1,1.1423262E0,5.7794113E0,-1.420844E-1,-1.3609799E1,1.1541781E1,4.3441014E0,1.033606E1,1.8960552E1,1.3162683E-1,1.7208101E1,-4.1533363E-1,-8.617908E0,-5.1631945E-1,-2.1225989E-1,-8.3941E0,-4.18415E0,-3.8226504E0,-6.1725383E0,-1.0925622E0,-1.0389081E1,-1.5078219E0,-4.861372E0,3.212373E0,8.557837E0,9.821313E-2,-2.2236335E-1,2.9816008E-1,1.6035436E-1,6.801907E-2,2.3935749E-1,1.02775864E-1,3.8863835E-1,-2.1308616E-2,6.1640482E-2,-2.5832513E-1,2.4373634E-1,-4.3342862E-1,-1.7311691E-1,2.917942E-1,4.8545527E-1,1.7413683E-1,3.0435458E-2,1.0622993E-1,3.4179214E-1,2.0251864E-1,5.9215826E-1,3.8286778E-1,5.635275E-1,-2.7448067E-1,-1.0902256E-1,-1.0579833E-1,-2.6512116E-1,-2.438065E-2,-1.5621398E-1,-1.0877266E-1,-2.5251195E-1,-2.1466498E-1,-1.4878349E-1,-6.0281668E-2,8.861649E-3,-3.7472603E-1,-1.1131316E-1,-7.4377984E-2,2.2982528E-2,-1.576416E-1,-3.739095E-2,-2.036014E-3,1.607603E-1,6.826388E-2,3.1165776E-1],"categories":[],"categories_nodes":[],"categories_segments":[],"categories_sizes":[],"default_left":[0,0,0,0,0,0,0,0,0,0,0,0,0,0,0,0,0,0,0,0,0,0,0,0,0,0,0,0,0,0,0,0,0,0,0,0,0,0,0,0,0,0,0,0,0,0,0,0,0,0,0,0,0,0,0,0,0,0,0,0,0,0,0,0,0,0,0,0,0,0,0,0,0,0,0,0,0,0,0,0,0,0,0,0,0,0,0,0,0,0,0,0,0,0,0,0,0,0,0,0,0,0,0,0,0],"id":8,"left_children":[1,3,5,7,9,11,13,15,17,19,21,23,25,27,29,31,33,35,37,39,41,43,-1,45,47,49,-1,51,53,55,57,59,61,63,65,67,69,-1,71,73,75,77,79,-1,81,-1,83,-1,-1,85,87,89,91,93,95,97,99,101,103,-1,-1,-1,-1,-1,-1,-1,-1,-1,-1,-1,-1,-1,-1,-1,-1,-1,-1,-1,-1,-1,-1,-1,-1,-1,-1,-1,-1,-1,-1,-1,-1,-1,-1,-1,-1,-1,-1,-1,-1,-1,-1,-1,-1,-1,-1],"loss_changes":[8.889334E4,3.7008785E4,2.9252652E4,7.883575E3,2.875086E3,3.1585508E3,8.797363E3,2.610996E3,4.7455557E3,1.4641484E3,8.734375E2,5.571719E2,1.8514111E2,4.926615E3,3.765305E3,1.5530767E3,8.8624023E2,2.0269336E3,1.1735889E2,6.696094E2,8.3938086E2,2.7171875E2,0E0,1.7801172E2,8.144531E0,7.651416E1,0E0,1.5806016E3,2.2018257E3,2.2253589E2,1.1630562E3,1.2511343E3,6.0496484E2,6.851621E2,3.756538E2,1.5312838E3,3.6651562E3,0E0,5.541504E0,9.506035E2,7.97634E1,1.1246948E2,3.0308203E2,0E0,3.0009766E1,0E0,1.8660889E0,0E0,0E0,7.915674E1,3.211125E1,6.271113E2,5.184961E2,8.786289E2,2.992224E2,1.1695376E2,3.9355347E1,8.570111E2,7.03855E2,0E0,0E0,0E0,0E0,0E0,0E0,0E0,0E0,0E0,0E0,0E0,0E0,0E0,0E0,0E0,0E0,0E0,0E0,0E0,0E0,0E0,0E0,0E0,0E0,0E0,0E0,0E0,0E0,0E0,0E0,0E0,0E0,0E0,0E0,0E0,0E0,0E0,0E0,0E0,0E0,0E0,0E0,0E0,0E0,0E0,0E0],"parents":[2147483647,0,0,1,1,2,2,3,3,4,4,5,5,6,6,7,7,8,8,9,9,10,10,11,11,12,12,13,13,14,14,15,15,16,16,17,17,18,18,19,19,20,20,21,21,23,23,24,24,25,25,27,27,28,28,29,29,30,30,31,31,32,32,33,33,34,34,35,35,36,36,38,38,39,39,40,40,41,41,42,42,44,44,46,46,49,49,50,50,51,51,52,52,53,53,54,54,55,55,56,56,57,57,58,58],"right_children":[2,4,6,8,10,12,14,16,18,20,22,24,26,28,30,32,34,36,38,40,42,44,-1,46,48,50,-1,52,54,56,58,60,62,64,66,68,70,-1,72,74,76,78,80,-1,82,-1,84,-1,-1,86,88,90,92,94,96,98,100,102,104,-1,-1,-1,-1,-1,-1,-1,-1,-1,-1,-1,-1,-1,-1,-1,-1,-1,-1,-1,-1,-1,-1,-1,-1,-1,-1,-1,-1,-1,-1,-1,-1,-1,-1,-1,-1,-1,-1,-1,-1,-1,-1,-1,-1,-1,-1],"split_conditions":[4.51E2,5.4620487E1,6.0122174E2,4.04E2,5.979817E1,3E0,3.4210056E2,4.264882E2,6E0,3.7064873E1,4.1008893E2,1E0,1.2491761E1,2.988218E1,1E0,3.1325441E1,3.8450818E2,1E0,2.1319448E1,3E0,7.8984064E2,3.887161E0,7.5868905E-1,2.3168184E1,4.364331E1,1.0211024E0,1.5287576E-3,5.25E2,4E0,4.96E2,7.15986E2,6E0,3.43E2,4.1192375E1,2.8009188E1,3.1939007E1,2.083087E2,-1.420844E-1,2.0540262E-2,2E0,3.458675E1,1E0,8.9510417E-1,1.3162683E-1,-4.5255916E-3,-4.1533363E-1,6.237572E-1,-5.1631945E-1,-2.1225989E-1,4E0,3.1064716E-3,1E0,7.6442915E-1,3.23125E1,4.612489E1,2.3846375E-3,4.772884E-2,2.7231554E1,2E0,9.821313E-2,-2.2236335E-1,2.9816008E-1,1.6035436E-1,6.801907E-2,2.3935749E-1,1.02775864E-1,3.8863835E-1,-2.1308616E-2,6.1640482E-2,-2.5832513E-1,2.4373634E-1,-4.3342862E-1,-1.7311691E-1,2.917942E-1,4.8545527E-1,1.7413683E-1,3.0435458E-2,1.0622993E-1,3.4179214E-1,2.0251864E-1,5.9215826E-1,3.8286778E-1,5.635275E-1,-2.7448067E-1,-1.0902256E-1,-1.0579833E-1,-2.6512116E-1,-2.438065E-2,-1.5621398E-1,-1.0877266E-1,-2.5251195E-1,-2.1466498E-1,-1.4878349E-1,-6.0281668E-2,8.861649E-3,-3.7472603E-1,-1.1131316E-1,-7.4377984E-2,2.2982528E-2,-1.576416E-1,-3.739095E-2,-2.036014E-3,1.607603E-1,6.826388E-2,3.1165776E-1],"split_indices":[9,3,77,9,3,70,75,23,72,58,22,69,7,53,68,74,75,68,34,70,75,1,0,53,58,10,0,9,72,9,75,72,9,58,56,56,75,0,40,70,74,71,10,0,45,0,21,0,0,72,40,68,7,56,3,45,40,58,70,0,0,0,0,0,0,0,0,0,0,0,0,0,0,0,0,0,0,0,0,0,0,0,0,0,0,0,0,0,0,0,0,0,0,0,0,0,0,0,0,0,0,0,0,0,0],"split_type":[0,0,0,0,0,0,0,0,0,0,0,0,0,0,0,0,0,0,0,0,0,0,0,0,0,0,0,0,0,0,0,0,0,0,0,0,0,0,0,0,0,0,0,0,0,0,0,0,0,0,0,0,0,0,0,0,0,0,0,0,0,0,0,0,0,0,0,0,0,0,0,0,0,0,0,0,0,0,0,0,0,0,0,0,0,0,0,0,0,0,0,0,0,0,0,0,0,0,0,0,0,0,0,0,0],"sum_hessian":[4.512E3,2.024E3,2.488E3,1.706E3,3.18E2,2.83E2,2.205E3,6.76E2,1.03E3,2.32E2,8.6E1,2.12E2,7.1E1,1.938E3,2.67E2,4.38E2,2.38E2,1.007E3,2.3E1,1.57E2,7.5E1,5.8E1,2.8E1,8.2E1,1.3E2,6.8E1,3E0,1.225E3,7.13E2,8.4E1,1.83E2,2.94E2,1.44E2,1.84E2,5.4E1,9.03E2,1.04E2,4E0,1.9E1,1.4E2,1.7E1,2.3E1,5.2E1,3E0,5.5E1,6.3E1,1.9E1,1.27E2,3E0,5.8E1,1E1,7.45E2,4.8E2,6.88E2,2.5E1,5E1,3.4E1,1.2E2,6.3E1,2.84E2,1E1,4.6E1,9.8E1,2.6E1,1.58E2,6E0,4.8E1,2.98E2,6.05E2,1.4E1,9E1,1.6E1,3E0,1.04E2,3.6E1,1.1E1,6E0,4E0,1.9E1,4E0,4.8E1,1.8E1,3.7E1,1.6E1,3E0,6E0,5.2E1,3E0,7E0,7.17E2,2.8E1,2.61E2,2.19E2,4.14E2,2.74E2,1.8E1,7E0,3.5E1,1.5E1,3E1,4E0,4.8E1,7.2E1,1.5E1,4.8E1],"tree_param":{"num_deleted":"0","num_feature":"84","num_nodes":"105","size_leaf_vector":"1"}},{"base_weights":[2.0336348E-3,4.7257094E0,-3.9834561E0,2.6225784E0,1.3071967E1,-1.3032707E1,-2.7597554E0,5.0959015E0,1.1719179E0,1.1257117E1,1.9146034E1,-5.8636637E0,-1.4915416E1,-3.4622843E0,2.5792055E0,3.7013142E0,7.7756505E0,-1.0316557E1,1.4256787E0,1.2397356E1,5.474068E0,1.5774747E1,7.565033E-1,-2.9757533E0,-6.8401656E0,-1.571544E1,-1.2197854E1,-2.2818167E0,-5.522619E0,-3.1389885E0,5.065011E0,-4.572509E0,3.9312682E0,5.5447736E0,8.96628E0,1.6600616E-2,-1.2722485E1,9.521576E-1,5.6596637E0,1.01073885E1,1.647012E1,2.5628543E0,7.902789E0,8.504324E0,5.1153845E-1,-1.1578494E-1,3.8797697E-3,-7.714185E0,-1.4784853E-1,-1.6356062E1,-1.0402285E1,-1.2993413E1,-8.425808E0,-3.2537224E0,-1.0744061E0,-5.2448463E0,-9.875253E0,-4.449051E0,-1.5149868E0,7.5745025E0,2.255354E0,-2.4127558E-1,4.1100275E-2,8.459892E-2,1.7631441E-1,4.161753E-2,2.1635328E-1,2.3988186E-1,3.705115E-1,-2.2983856E-1,-4.6395358E-1,-2.3509331E-2,5.662351E-2,-2.7851614E-1,2.2896273E-1,2.1564153E-1,3.947226E-1,5.7117736E-1,3.5599956E-1,3.3449035E-2,1.1195474E-1,7.8648515E-2,2.6435727E-1,8.862849E-2,2.930835E-1,-2.4514595E-1,-1.0610043E-1,-4.9468088E-1,-1.9559626E-1,-1.20347165E-1,-3.3199897E-1,-4.0368238E-1,-1.7767076E-1,-2.9417238E-1,-6.1387524E-2,-1.1148059E-1,-6.1787415E-2,-2.0466626E-2,-1.4795792E-1,-1.8899278E-1,-1.3084921E-1,7.968774E-2,-3.305964E-1,-1.4598878E-1,-6.762573E-2,-1.09490395E-1,-1.1148255E-2,1.6989407E-1,2.8720844E-1,-1.2735067E-1,9.952661E-2],"categories":[],"categories_nodes":[],"categories_segments":[],"categories_sizes":[],"default_left":[0,0,0,0,0,0,0,0,0,0,0,0,0,0,0,0,0,0,0,0,0,0,0,0,0,0,0,0,0,0,0,0,0,0,0,0,0,0,0,0,0,0,0,0,0,0,0,0,0,0,0,0,0,0,0,0,0,0,0,0,0,0,0,0,0,0,0,0,0,0,0,0,0,0,0,0,0,0,0,0,0,0,0,0,0,0,0,0,0,0,0,0,0,0,0,0,0,0,0,0,0,0,0,0,0,0,0,0,0,0,0],"id":9,"left_children":[1,3,5,7,9,11,13,15,17,19,21,23,25,27,29,31,33,35,37,39,41,43,-1,45,47,49,51,53,55,57,59,61,63,65,67,-1,69,71,73,75,77,79,81,83,-1,-1,-1,85,-1,87,89,91,93,95,97,99,101,103,105,107,109,-1,-1,-1,-1,-1,-1,-1,-1,-1,-1,-1,-1,-1,-1,-1,-1,-1,-1,-1,-1,-1,-1,-1,-1,-1,-1,-1,-1,-1,-1,-1,-1,-1,-1,-1,-1,-1,-1,-1,-1,-1,-1,-1,-1,-1,-1,-1,-1,-1,-1],"loss_changes":[8.4190734E4,3.5868203E4,2.6801848E4,5.8614727E3,4.2068047E3,3.7586016E3,8.0346045E3,2.2136387E3,3.0332715E3,2.0080273E3,1.2882422E3,1.4375806E2,2.0148828E2,4.5775312E3,3.570706E3,7.888252E2,4.683623E2,6.014187E2,2.0205369E3,2.2304883E3,3.5994043E2,3.6671484E2,0E0,5.226056E1,1.6476318E1,3.1977344E2,7.0478516E0,1.4073579E3,7.505E2,1.5145392E2,1.2027754E3,2.5499892E2,8.178428E2,5.0653345E2,2.795547E2,0E0,7.444946E1,1.4838678E3,3.0976692E3,1.4078281E3,7.607363E2,3.933412E1,1.0469714E2,4.1931458E1,0E0,0E0,0E0,8.759399E0,0E0,3.015625E1,2.5919922E1,2.5441406E1,9.5181274E1,3.5530566E2,8.100207E2,5.617949E2,6.1216455E2,2.0126587E1,8.624916E1,2.6525244E2,6.043861E2,0E0,0E0,0E0,0E0,0E0,0E0,0E0,0E0,0E0,0E0,0E0,0E0,0E0,0E0,0E0,0E0,0E0,0E0,0E0,0E0,0E0,0E0,0E0,0E0,0E0,0E0,0E0,0E0,0E0,0E0,0E0,0E0,0E0,0E0,0E0,0E0,0E0,0E0,0E0,0E0,0E0,0E0,0E0,0E0,0E0,0E0,0E0,0E0,0E0,0E0],"parents":[2147483647,0,0,1,1,2,2,3,3,4,4,5,5,6,6,7,7,8,8,9,9,10,10,11,11,12,12,13,13,14,14,15,15,16,16,17,17,18,18,19,19,20,20,21,21,23,23,24,24,25,25,26,26,27,27,28,28,29,29,30,30,31,31,32,32,33,33,34,34,36,36,37,37,38,38,39,39,40,40,41,41,42,42,43,43,47,47,49,49,50,50,51,51,52,52,53,53,54,54,55,55,56,56,57,57,58,58,59,59,60,60],"right_children":[2,4,6,8,10,12,14,16,18,20,22,24,26,28,30,32,34,36,38,40,42,44,-1,46,48,50,52,54,56,58,60,62,64,66,68,-1,70,72,74,76,78,80,82,84,-1,-1,-1,86,-1,88,90,92,94,96,98,100,102,104,106,108,110,-1,-1,-1,-1,-1,-1,-1,-1,-1,-1,-1,-1,-1,-1,-1,-1,-1,-1,-1,-1,-1,-1,-1,-1,-1,-1,-1,-1,-1,-1,-1,-1,-1,-1,-1,-1,-1,-1,-1,-1,-1,-1,-1,-1,-1,-1,-1,-1,-1,-1],"split_conditions":[4.54E2,5.3588654E1,4.1455585E1,4.05E2,5.979817E1,1E0,7.1894903E0,4.4492E2,4.1455585E1,5E0,4.152575E2,5.21E2,1.5156535E0,5.14E2,1E0,4.348624E1,3.9198986E1,1E0,1E0,2E0,4.3669754E1,3.016317E1,7.565033E-1,5.143827E0,4.2699324E-4,3E0,6.022466E-1,3.0790108E1,1E0,3.1E1,4.89E2,-4.429452E-3,6.3913477E2,2.2460878E2,1E0,1.6600616E-2,-3.3919725E-3,3.2076504E1,5.1701403E0,3.425202E1,4.21E2,3.2240842E2,3.8145816E2,5E0,5.1153845E-1,-1.1578494E-1,3.8797697E-3,5.64E2,-1.4784853E-1,4.364331E1,-1.5398502E1,3.9533356E1,3.9631153E1,2.458759E0,1E0,9.184186E1,5.405314E-1,6.5018954E0,-1.6003752E-2,6.199815E2,2E0,-2.4127558E-1,4.1100275E-2,8.459892E-2,1.7631441E-1,4.161753E-2,2.1635328E-1,2.3988186E-1,3.705115E-1,-2.2983856E-1,-4.6395358E-1,-2.3509331E-2,5.662351E-2,-2.7851614E-1,2.2896273E-1,2.1564153E-1,3.947226E-1,5.7117736E-1,3.5599956E-1,3.3449035E-2,1.1195474E-1,7.8648515E-2,2.6435727E-1,8.862849E-2,2.930835E-1,-2.4514595E-1,-1.0610043E-1,-4.9468088E-1,-1.9559626E-1,-1.20347165E-1,-3.3199897E-1,-4.0368238E-1,-1.7767076E-1,-2.9417238E-1,-6.1387524E-2,-1.1148059E-1,-6.1787415E-2,-2.0466626E-2,-1.4795792E-1,-1.8899278E-1,-1.3084921E-1,7.968774E-2,-3.305964E-1,-1.4598878E-1,-6.762573E-2,-1.09490395E-1,-1.1148255E-2,1.6989407E-1,2.8720844E-1,-1.2735067E-1,9.952661E-2],"split_indices":[9,3,3,9,3,68,50,23,3,70,15,9,38,9,68,3,56,68,68,70,57,57,0,59,41,70,14,57,68,12,9,45,76,75,71,0,45,56,50,54,9,15,76,16,0,0,0,8,0,58,47,56,3,39,71,22,20,7,41,75,70,0,0,0,0,0,0,0,0,0,0,0,0,0,0,0,0,0,0,0,0,0,0,0,0,0,0,0,0,0,0,0,0,0,0,0,0,0,0,0,0,0,0,0,0,0,0,0,0,0,0],"split_type":[0,0,0,0,0,0,0,0,0,0,0,0,0,0,0,0,0,0,0,0,0,0,0,0,0,0,0,0,0,0,0,0,0,0,0,0,0,0,0,0,0,0,0,0,0,0,0,0,0,0,0,0,0,0,0,0,0,0,0,0,0,0,0,0,0,0,0,0,0,0,0,0,0,0,0,0,0,0,0,0,0,0,0,0,0,0,0,0,0,0,0,0,0,0,0,0,0,0,0,0,0,0,0,0,0,0,0,0,0,0,0],"sum_hessian":[4.469E3,2.045E3,2.424E3,1.635E3,4.1E2,2.87E2,2.137E3,6.03E2,1.032E3,3.19E2,9.1E1,6.1E1,2.26E2,1.889E3,2.48E2,3.99E2,2.04E2,2.1E1,1.011E3,2.65E2,5.4E1,6.2E1,2.9E1,1.7E1,4.4E1,1.69E2,5.7E1,1.203E3,6.86E2,7.5E1,1.73E2,1E1,3.89E2,7.4E1,1.3E2,4E0,1.7E1,9.11E2,1E2,1.73E2,9.2E1,2.6E1,2.8E1,1.1E1,5.1E1,1.3E1,4E0,2.7E1,1.7E1,1.48E2,2.1E1,4.4E1,1.3E1,6.65E2,5.38E2,6.48E2,3.8E1,4E1,3.5E1,9E1,8.3E1,6E0,4E0,2.5E2,1.39E2,2.2E1,5.2E1,1.05E2,2.5E1,8E0,9E0,3.19E2,5.92E2,1.1E1,8.9E1,9.1E1,8.2E1,5.6E1,3.6E1,1.3E1,1.3E1,5E0,2.3E1,3E0,8E0,2.3E1,4E0,1.45E2,3E0,3E0,1.8E1,4E1,4E0,1E1,3E0,4.77E2,1.88E2,4.9E2,4.8E1,2.91E2,3.57E2,3E0,3.5E1,3.2E1,8E0,1.1E1,2.4E1,4.9E1,4.1E1,1.1E1,7.2E1],"tree_param":{"num_deleted":"0","num_feature":"84","num_nodes":"111","size_leaf_vector":"1"}},{"base_weights":[8.418301E-3,5.3152695E0,-3.4143093E0,3.4089637E0,1.4202377E1,-1.2095894E1,-2.1958132E0,6.1228642E0,1.9724826E0,1.2213509E1,1.901403E1,-5.757162E0,-1.4367106E1,-2.923684E0,3.0552561E0,3.3005412E0,7.3344326E0,-8.319209E0,2.2199724E0,1.0684826E1,1.4918875E1,8.324213E0,2.1050734E1,-2.7964582E0,-6.9468365E0,-1.5357296E1,-1.1842895E1,-4.32018E0,-8.5778916E-1,-2.6103492E0,5.379839E0,6.8945003E0,2.0994744E0,5.792202E0,9.681773E0,-6.064154E-1,-1.1056611E1,1.683159E0,6.1096997E0,1.4323793E1,9.488873E0,9.010315E-2,1.5341203E1,2.5827296E0,3.3651155E-1,4.1034082E-1,2.2613752E1,-3.744342E0,3.7352197E-2,-8.153982E0,-1.5699515E-1,-1.6139174E1,-9.954115E0,-1.2605781E1,-2.2970921E-1,-3.5051892E0,-5.893012E0,-1.802757E0,3.722077E-1,-1.0866613E0,-4.338442E0,2.3131487E0,7.5380597E0,4.194385E-2,2.300824E-1,-1.9071936E-3,9.211407E-2,4.36957E-2,2.033411E-1,2.436696E-1,3.748272E-1,-5.7388842E-2,2.573474E-2,-3.6531064E-1,-1.1896193E-1,1.9899625E-2,1.1542321E-1,-2.2473572E-1,2.406255E-1,1.00428894E-1,4.9586168E-1,1.8273358E-1,3.255052E-1,1.2674569E-1,4.7164536E-1,9.5358685E-2,3.2444462E-2,7.6449865E-1,5.154089E-1,-1.2628752E-1,-9.9704275E-3,-2.5664258E-1,-7.758427E-2,-4.8791146E-1,-2.0230494E-1,-3.155918E-1,-1.12906955E-1,-3.8540646E-1,-1.5675238E-1,-1.0922864E-1,1.0095942E-2,-1.9526094E-1,-1.16795406E-1,-4.6448503E-2,-1.5651913E-1,-5.3428814E-2,2.5025757E-2,-8.072773E-2,3.523719E-3,-3.6082126E-2,-1.4856479E-1,1.2297279E-1,-1.4113479E-2,1.5123644E-1,2.9657924E-1],"categories":[],"categories_nodes":[],"categories_segments":[],"categories_sizes":[],"default_left":[0,0,0,0,0,0,0,0,0,0,0,0,0,0,0,0,0,0,0,0,0,0,0,0,0,0,0,0,0,0,0,0,0,0,0,0,0,0,0,0,0,0,0,0,0,0,0,0,0,0,0,0,0,0,0,0,0,0,0,0,0,0,0,0,0,0,0,0,0,0,0,0,0,0,0,0,0,0,0,0,0,0,0,0,0,0,0,0,0,0,0,0,0,0,0,0,0,0,0,0,0,0,0,0,0,0,0,0,0,0,0,0,0,0,0],"id":10,"left_children":[1,3,5,7,9,11,13,15,17,19,21,23,25,27,29,31,33,35,37,39,41,43,45,47,49,51,53,55,57,59,61,63,65,67,69,71,73,75,77,79,81,-1,83,85,-1,-1,87,89,-1,91,-1,93,95,97,-1,99,101,103,105,107,109,111,113,-1,-1,-1,-1,-1,-1,-1,-1,-1,-1,-1,-1,-1,-1,-1,-1,-1,-1,-1,-1,-1,-1,-1,-1,-1,-1,-1,-1,-1,-1,-1,-1,-1,-1,-1,-1,-1,-1,-1,-1,-1,-1,-1,-1,-1,-1,-1,-1,-1,-1,-1,-1],"loss_changes":[8.10477E4,2.9563082E4,2.865142E4,5.6038027E3,2.5976836E3,4.673172E3,9.111884E3,1.6661504E3,2.4347551E3,6.759531E2,1.6363281E3,2.8767725E2,3.3285938E2,6.02741E3,3.8475527E3,6.347683E2,1.1707871E3,4.6265308E2,1.9134253E3,4.332871E2,3.121836E2,2.2783582E2,3.642422E2,1.1667354E2,6.467456E1,4.7410547E2,9.226465E1,1.5662363E3,9.8402374E2,2.1697113E2,1.3386147E3,1.4182251E2,2.4558002E2,8.960991E2,4.379453E2,1.7020735E1,5.543506E1,1.7930479E3,2.9884937E3,7.237822E2,4.3170605E2,0E0,2.0710938E2,7.009201E-1,0E0,0E0,2.3126367E2,3.4297028E1,0E0,4.1570557E1,0E0,2.3164062E0,2.7043213E1,5.135742E0,0E0,4.3305664E2,4.8135254E2,4.0230432E2,3.6859705E2,9.2745636E1,6.585004E1,4.386115E2,6.286753E2,0E0,0E0,0E0,0E0,0E0,0E0,0E0,0E0,0E0,0E0,0E0,0E0,0E0,0E0,0E0,0E0,0E0,0E0,0E0,0E0,0E0,0E0,0E0,0E0,0E0,0E0,0E0,0E0,0E0,0E0,0E0,0E0,0E0,0E0,0E0,0E0,0E0,0E0,0E0,0E0,0E0,0E0,0E0,0E0,0E0,0E0,0E0,0E0,0E0,0E0,0E0,0E0],"parents":[2147483647,0,0,1,1,2,2,3,3,4,4,5,5,6,6,7,7,8,8,9,9,10,10,11,11,12,12,13,13,14,14,15,15,16,16,17,17,18,18,19,19,20,20,21,21,22,22,23,23,24,24,25,25,26,26,27,27,28,28,29,29,30,30,31,31,32,32,33,33,34,34,35,35,36,36,37,37,38,38,39,39,40,40,42,42,43,43,46,46,47,47,49,49,51,51,52,52,53,53,55,55,56,56,57,57,58,58,59,59,60,60,61,61,62,62],"right_children":[2,4,6,8,10,12,14,16,18,20,22,24,26,28,30,32,34,36,38,40,42,44,46,48,50,52,54,56,58,60,62,64,66,68,70,72,74,76,78,80,82,-1,84,86,-1,-1,88,90,-1,92,-1,94,96,98,-1,100,102,104,106,108,110,112,114,-1,-1,-1,-1,-1,-1,-1,-1,-1,-1,-1,-1,-1,-1,-1,-1,-1,-1,-1,-1,-1,-1,-1,-1,-1,-1,-1,-1,-1,-1,-1,-1,-1,-1,-1,-1,-1,-1,-1,-1,-1,-1,-1,-1,-1,-1,-1,-1,-1,-1,-1,-1],"split_conditions":[4.42E2,5.4620487E1,4.185909E1,3.92E2,4.152575E2,1E0,7.1894903E0,3.0688171E1,1.3095605E2,5.864338E1,8.5234E2,5.21E2,1E0,2.99295E1,1E0,3.43E2,3.099918E1,1E0,1E0,2.5844994E1,2.9796059E1,1E0,3.5182384E1,2.1405945E2,2.9231775E1,3E0,1.9933243E2,5.3E2,3.5E1,4.86E2,5.1356464E1,5.849962E-1,2.9677446E1,1.2719555E2,1E0,2.551789E-3,6.18626E2,4.0994194E1,5.1701403E0,1.0539098E1,5.142857E0,9.010315E-2,3.9136117E0,4.969929E1,3.3651155E-1,4.1034082E-1,3.969895E1,2.6085594E1,3.7352197E-2,4.5061493E0,-1.5699515E-1,4.491017E1,6.258583E-1,3.137855E4,-2.2970921E-1,2.3891552E1,3.0596645E1,1E0,5E0,3.1E1,2.06E2,5E2,2.8177717E1,4.194385E-2,2.300824E-1,-1.9071936E-3,9.211407E-2,4.36957E-2,2.033411E-1,2.436696E-1,3.748272E-1,-5.7388842E-2,2.573474E-2,-3.6531064E-1,-1.1896193E-1,1.9899625E-2,1.1542321E-1,-2.2473572E-1,2.406255E-1,1.00428894E-1,4.9586168E-1,1.8273358E-1,3.255052E-1,1.2674569E-1,4.7164536E-1,9.5358685E-2,3.2444462E-2,7.6449865E-1,5.154089E-1,-1.2628752E-1,-9.9704275E-3,-2.5664258E-1,-7.758427E-2,-4.8791146E-1,-2.0230494E-1,-3.155918E-1,-1.12906955E-1,-3.8540646E-1,-1.5675238E-1,-1.0922864E-1,1.0095942E-2,-1.9526094E-1,-1.16795406E-1,-4.6448503E-2,-1.5651913E-1,-5.3428814E-2,2.5025757E-2,-8.072773E-2,3.523719E-3,-3.6082126E-2,-1.4856479E-1,1.2297279E-1,-1.4113479E-2,1.5123644E-1,2.9657924E-1],"split_indices":[9,3,3,9,22,68,50,56,75,3,75,9,66,53,68,9,74,68,68,34,53,68,54,76,56,70,76,9,12,9,3,52,74,15,68,45,76,58,50,50,29,0,35,13,0,0,26,26,0,1,0,56,21,73,0,64,56,71,69,12,8,9,56,0,0,0,0,0,0,0,0,0,0,0,0,0,0,0,0,0,0,0,0,0,0,0,0,0,0,0,0,0,0,0,0,0,0,0,0,0,0,0,0,0,0,0,0,0,0,0,0,0,0,0,0],"split_type":[0,0,0,0,0,0,0,0,0,0,0,0,0,0,0,0,0,0,0,0,0,0,0,0,0,0,0,0,0,0,0,0,0,0,0,0,0,0,0,0,0,0,0,0,0,0,0,0,0,0,0,0,0,0,0,0,0,0,0,0,0,0,0,0,0,0,0,0,0,0,0,0,0,0,0,0,0,0,0,0,0,0,0,0,0,0,0,0,0,0,0,0,0,0,0,0,0,0,0,0,0,0,0,0,0,0,0,0,0,0,0,0,0,0,0],"sum_hessian":[4.459E3,1.748E3,2.711E3,1.441E3,3.07E2,3.32E2,2.379E3,4.97E2,9.44E2,2.21E2,8.6E1,8.9E1,2.43E2,2.09E3,2.89E2,1.51E2,3.46E2,2.1E1,9.23E2,1.46E2,7.5E1,1.5E1,7.1E1,2.7E1,6.2E1,1.69E2,7.4E1,1.246E3,8.44E2,8.4E1,2.05E2,3.6E1,1.15E2,2.12E2,1.34E2,6E0,1.5E1,8.13E2,1.1E2,3.2E1,1.14E2,3E0,7.2E1,6E0,9E0,1.5E1,5.6E1,2.2E1,5E0,3.3E1,2.9E1,1.45E2,2.4E1,6E1,1.4E1,8.24E2,4.22E2,4.77E2,3.67E2,4.6E1,3.8E1,8.6E1,1.19E2,5E0,3.1E1,3.6E1,7.9E1,4E1,1.72E2,9E1,4.4E1,3E0,3E0,1.2E1,3E0,5.54E2,2.59E2,1.3E1,9.7E1,6E0,2.6E1,3.5E1,7.9E1,3E0,6.9E1,3E0,3E0,3.3E1,2.3E1,1.9E1,3E0,3E1,3E0,1.42E2,3E0,2.1E1,3E0,5.7E1,3E0,7.96E2,2.8E1,3.2E2,1.02E2,4.46E2,3.1E1,6.4E1,3.03E2,1.9E1,2.7E1,7E0,3.1E1,5.2E1,3.4E1,6E1,5.9E1],"tree_param":{"num_deleted":"0","num_feature":"84","num_nodes":"115","size_leaf_vector":"1"}},{"base_weights":[-6.2455684E-2,4.505485E0,-3.6852217E0,2.570524E0,1.20862255E1,-1.29774885E1,-2.629506E0,1.3571796E0,5.3270345E0,1.0188138E1,1.7216288E1,-6.5220633E0,-1.4242738E1,-3.287006E0,2.4650197E0,5.211335E-1,3.9283729E0,3.7089186E0,7.461837E0,1.1097206E1,4.0035334E0,1.9155996E1,6.4255667E0,-2.0935078E0,-7.5507035E0,-4.6690667E-1,-1.1753513E1,-2.1480286E0,-5.305842E0,-2.3166362E-2,6.8318353E0,8.8967764E-1,-7.774519E0,1.0334779E0,6.7783046E0,3.944796E0,-5.5449657E0,6.2912636E0,1.0327551E1,9.37938E0,1.374272E1,2.31153E0,2.1347666E-1,1.5578304E1,2.1957571E1,3.0783322E0,2.5551093E-1,-1.07195415E-1,3.078016E-2,-2.4006148E-1,-1.0978838E-1,-1.2527695E1,-2.0919839E-1,-1.8941066E0,-8.119006E0,-4.9821844E0,-1.0658828E1,1.9513048E0,-3.0096266E0,4.4496636E0,9.411929E0,-9.809822E-3,4.8860032E-2,1.416371E-1,-2.8777355E-1,-2.4820654E-2,1.1737593E-1,3.0641013E-1,9.877873E-2,1.3992403E-1,4.8572216E-2,-2.0614204E-1,-6.977292E-2,2.658042E-2,2.0635037E-1,3.5523686E-1,1.9370098E-1,2.2911137E-1,3.4724194E-1,3.4711117E-1,5.6138825E-1,2.678031E-2,1.20136224E-1,3.6560538E-1,5.5040485E-1,6.751511E-1,2.790529E-1,1.1027249E-1,3.4345224E-2,-3.8260588E-1,-1.5361735E-1,-9.057117E-2,-2.3419345E-2,8.968363E-2,-3.2725847E-1,-1.7732137E-1,-1.2246537E-1,-2.385154E-2,-3.4294188E-1,-2.5802484E-1,7.573389E-2,-1.280591E-2,-1.2802844E-1,-4.034057E-2,1.4561366E-1,1.4871174E-1,3.863517E-1],"categories":[],"categories_nodes":[],"categories_segments":[],"categories_sizes":[],"default_left":[0,0,0,0,0,0,0,0,0,0,0,0,0,0,0,0,0,0,0,0,0,0,0,0,0,0,0,0,0,0,0,0,0,0,0,0,0,0,0,0,0,0,0,0,0,0,0,0,0,0,0,0,0,0,0,0,0,0,0,0,0,0,0,0,0,0,0,0,0,0,0,0,0,0,0,0,0,0,0,0,0,0,0,0,0,0,0,0,0,0,0,0,0,0,0,0,0,0,0,0,0,0,0,0,0,0,0],"id":11,"left_children":[1,3,5,7,9,11,13,15,17,19,21,23,25,27,29,31,33,35,37,39,41,43,45,47,49,-1,51,53,55,57,59,61,63,65,67,69,71,73,75,77,79,81,-1,83,85,87,-1,-1,-1,-1,-1,89,-1,91,93,95,97,99,101,103,105,-1,-1,-1,-1,-1,-1,-1,-1,-1,-1,-1,-1,-1,-1,-1,-1,-1,-1,-1,-1,-1,-1,-1,-1,-1,-1,-1,-1,-1,-1,-1,-1,-1,-1,-1,-1,-1,-1,-1,-1,-1,-1,-1,-1,-1,-1],"loss_changes":[7.413756E4,2.9015973E4,2.445596E4,5.273954E3,3.6506836E3,1.9351914E3,7.533956E3,2.3595642E3,1.6229805E3,1.6029512E3,2.0393887E3,1.7707483E2,4.1551953E2,4.556088E3,2.7994526E3,2.551155E3,2.2113735E3,6.3821313E2,5.919258E2,9.76791E2,1.8671936E2,3.7647266E2,8.786505E1,5.4475113E1,1.6087036E1,0E0,1.5927148E2,1.9072793E3,1.1585762E3,9.849212E2,5.090796E2,7.1809827E2,8.753406E2,7.3140533E2,1.5694106E3,4.4163086E2,6.214157E0,4.668916E2,2.1856299E2,4.8130664E2,7.326797E2,6.2119247E1,0E0,7.633301E1,1.8164062E0,3.6971207E0,0E0,0E0,0E0,0E0,0E0,9.707031E0,0E0,1.5294761E3,1.6463958E3,5.2881836E2,2.849292E2,6.3918176E2,2.1239276E2,1.3108673E2,5.7242944E2,0E0,0E0,0E0,0E0,0E0,0E0,0E0,0E0,0E0,0E0,0E0,0E0,0E0,0E0,0E0,0E0,0E0,0E0,0E0,0E0,0E0,0E0,0E0,0E0,0E0,0E0,0E0,0E0,0E0,0E0,0E0,0E0,0E0,0E0,0E0,0E0,0E0,0E0,0E0,0E0,0E0,0E0,0E0,0E0,0E0,0E0],"parents":[2147483647,0,0,1,1,2,2,3,3,4,4,5,5,6,6,7,7,8,8,9,9,10,10,11,11,12,12,13,13,14,14,15,15,16,16,17,17,18,18,19,19,20,20,21,21,22,22,23,23,24,24,26,26,27,27,28,28,29,29,30,30,31,31,32,32,33,33,34,34,35,35,36,36,37,37,38,38,39,39,40,40,41,41,43,43,44,44,45,45,51,51,53,53,54,54,55,55,56,56,57,57,58,58,59,59,60,60],"right_children":[2,4,6,8,10,12,14,16,18,20,22,24,26,28,30,32,34,36,38,40,42,44,46,48,50,-1,52,54,56,58,60,62,64,66,68,70,72,74,76,78,80,82,-1,84,86,88,-1,-1,-1,-1,-1,90,-1,92,94,96,98,100,102,104,106,-1,-1,-1,-1,-1,-1,-1,-1,-1,-1,-1,-1,-1,-1,-1,-1,-1,-1,-1,-1,-1,-1,-1,-1,-1,-1,-1,-1,-1,-1,-1,-1,-1,-1,-1,-1,-1,-1,-1,-1,-1,-1,-1,-1,-1,-1],"split_conditions":[4.51E2,5.3588654E1,2.3620394E1,4.200815E1,4.264882E2,1E0,7.1894903E0,6.734971E0,4.152575E2,5E0,5E0,5.34E2,1E0,5.14E2,5.2006985E1,1E0,1E0,6E0,5.5E1,3.4549427E1,3.99917E1,4E0,4.175911E1,3.9101646E0,3.6542553E1,-4.6690667E-1,2.4401155E1,1E0,1E0,5E0,2.8324234E1,3.1939007E1,4E0,4.558557E1,1E0,4.22E2,4.3704457E0,4.1542764E0,4.399155E0,5.7687507E0,1.1E1,5.2077896E1,2.1347666E-1,3.5304043E1,4.7175694E-2,4.969929E1,2.5551093E-1,-1.07195415E-1,3.078016E-2,-2.4006148E-1,-1.0978838E-1,3.137855E4,-2.0919839E-1,3.0164463E1,4E0,9.184186E1,5.582973E-1,2.5144598E1,4.76E2,1E0,1.2406636E1,-9.809822E-3,4.8860032E-2,1.416371E-1,-2.8777355E-1,-2.4820654E-2,1.1737593E-1,3.0641013E-1,9.877873E-2,1.3992403E-1,4.8572216E-2,-2.0614204E-1,-6.977292E-2,2.658042E-2,2.0635037E-1,3.5523686E-1,1.9370098E-1,2.2911137E-1,3.4724194E-1,3.4711117E-1,5.6138825E-1,2.678031E-2,1.20136224E-1,3.6560538E-1,5.5040485E-1,6.751511E-1,2.790529E-1,1.1027249E-1,3.4345224E-2,-3.8260588E-1,-1.5361735E-1,-9.057117E-2,-2.3419345E-2,8.968363E-2,-3.2725847E-1,-1.7732137E-1,-1.2246537E-1,-2.385154E-2,-3.4294188E-1,-2.5802484E-1,7.573389E-2,-1.280591E-2,-1.2802844E-1,-4.034057E-2,1.4561366E-1,1.4871174E-1,3.863517E-1],"split_indices":[9,3,74,58,23,68,50,50,23,70,70,9,66,9,3,68,68,72,12,58,55,72,54,1,56,0,53,68,68,70,56,56,72,53,67,9,1,25,1,46,69,13,0,74,40,13,0,0,0,0,0,73,0,53,72,23,2,74,9,68,50,0,0,0,0,0,0,0,0,0,0,0,0,0,0,0,0,0,0,0,0,0,0,0,0,0,0,0,0,0,0,0,0,0,0,0,0,0,0,0,0,0,0,0,0,0,0],"split_type":[0,0,0,0,0,0,0,0,0,0,0,0,0,0,0,0,0,0,0,0,0,0,0,0,0,0,0,0,0,0,0,0,0,0,0,0,0,0,0,0,0,0,0,0,0,0,0,0,0,0,0,0,0,0,0,0,0,0,0,0,0,0,0,0,0,0,0,0,0,0,0,0,0,0,0,0,0,0,0,0,0,0,0,0,0,0,0,0,0,0,0,0,0,0,0,0,0,0,0,0,0,0,0,0,0,0,0],"sum_hessian":[4.477E3,1.98E3,2.497E3,1.579E3,4.01E2,2.53E2,2.244E3,1.098E3,4.81E2,2.96E2,1.05E2,4.3E1,2.1E2,1.988E3,2.56E2,8.3E2,2.68E2,2.76E2,2.05E2,2.57E2,3.9E1,8.8E1,1.7E1,9E0,3.4E1,1.32E2,7.8E1,1.273E3,7.15E2,1.64E2,9.2E1,7.96E2,3.4E1,1.34E2,1.34E2,2.7E2,6E0,1.49E2,5.6E1,1.6E2,9.7E1,2.7E1,1.2E1,4.3E1,4.5E1,8E0,9E0,6E0,3E0,2.9E1,5E0,6.5E1,1.3E1,1.223E3,5E1,6.77E2,3.8E1,9.9E1,6.5E1,5E1,4.2E1,3.01E2,4.95E2,4E0,3E1,8.2E1,5.2E1,6.6E1,6.8E1,2.05E2,6.5E1,3E0,3E0,1.5E1,1.34E2,3.8E1,1.8E1,9.3E1,6.7E1,7.1E1,2.6E1,1.6E1,1.1E1,2.3E1,2E1,4.2E1,3E0,5E0,3E0,6.2E1,3E0,6.07E2,6.16E2,1E1,4E1,3.29E2,3.48E2,3E0,3.5E1,4E0,9.5E1,2.2E1,4.3E1,3E0,4.7E1,2E1,2.2E1],"tree_param":{"num_deleted":"0","num_feature":"84","num_nodes":"107","size_leaf_vector":"1"}},{"base_weights":[5.9580453E-2,4.4723806E0,-3.5010972E0,2.4641585E0,1.2086072E1,-1.209923E1,-2.4182363E0,1.1486938E0,5.1521583E0,1.0146819E1,1.8190258E1,-1.3777112E1,-6.8015714E0,-3.0851352E0,2.376604E0,1.4338802E0,-1.054776E1,7.357336E0,3.6906934E0,6.8036118E0,1.218656E1,1.8742651E1,1.0781865E-2,-1.5231419E1,-1.1276629E1,-7.0873337E0,-8.010208E-3,-2.0131004E0,-5.061719E0,4.600771E0,-2.746067E0,5.5039787E0,9.485375E-1,-1.15359745E1,-6.1389778E-2,2.5219157E0,8.066431E0,4.1292677E0,-2.5853422E0,2.6000576E0,8.2748375E0,7.90145E0,1.35283785E1,1.2290856E1,2.0311127E1,-4.6110415E-1,-1.8815732E-1,-1.2101786E1,-7.6695805E0,-2.9344556E-1,-6.1546855E0,-2.6563425E0,-2.0013946E-1,-9.909825E0,-4.8376765E0,2.7294226E0,7.672047E0,-4.1297765E0,-6.355535E-1,-2.3927984E-1,2.2278203E-1,1.3063923E-1,1.8618654E-2,-3.837032E-1,-1.6399641E-1,-1.2062151E-1,1.0607979E-1,1.9620678E-1,2.9400203E-1,6.5189414E-2,1.5664141E-1,-2.3079962E-1,5.9988014E-2,9.637053E-3,1.5134163E-1,1.9357614E-1,3.7115532E-1,1.6529873E-1,3.474156E-1,3.3420438E-1,4.7297156E-1,2.2308654E-1,4.4058663E-1,1.9301821E-1,6.226683E-1,-3.6965042E-1,-1.5054499E-1,-2.4643138E-1,-9.213041E-2,-1.9929011E-1,-9.5605716E-2,-2.3056182E-1,-7.28417E-2,-4.928295E-2,2.2395639E-2,-3.7436917E-1,-4.91722E-2,-1.6282772E-1,-1.1058773E-1,-1.3758993E-2,1.3599025E-1,4.281459E-2,2.7534077E-1,-1.3102326E-1,-7.5858226E-3,-1.1321416E-1,6.5020476E-3],"categories":[],"categories_nodes":[],"categories_segments":[],"categories_sizes":[],"default_left":[0,0,0,0,0,0,0,0,0,0,0,0,0,0,0,0,0,0,0,0,0,0,0,0,0,0,0,0,0,0,0,0,0,0,0,0,0,0,0,0,0,0,0,0,0,0,0,0,0,0,0,0,0,0,0,0,0,0,0,0,0,0,0,0,0,0,0,0,0,0,0,0,0,0,0,0,0,0,0,0,0,0,0,0,0,0,0,0,0,0,0,0,0,0,0,0,0,0,0,0,0,0,0,0,0,0,0],"id":12,"left_children":[1,3,5,7,9,11,13,15,17,19,21,23,25,27,29,31,33,35,37,39,41,43,-1,45,47,49,-1,51,53,55,57,59,61,63,-1,65,67,69,71,73,75,77,79,81,83,-1,-1,85,87,-1,89,91,93,95,97,99,101,103,105,-1,-1,-1,-1,-1,-1,-1,-1,-1,-1,-1,-1,-1,-1,-1,-1,-1,-1,-1,-1,-1,-1,-1,-1,-1,-1,-1,-1,-1,-1,-1,-1,-1,-1,-1,-1,-1,-1,-1,-1,-1,-1,-1,-1,-1,-1,-1,-1],"loss_changes":[7.028238E4,3.0494164E4,2.3001553E4,5.585533E3,4.6478125E3,2.3130938E3,7.047623E3,3.5716846E3,1.6313008E3,2.0505898E3,9.562676E2,4.9526172E2,1.25470215E2,4.0782031E3,3.0899175E3,2.0462747E3,1.7610571E2,6.7198047E2,8.847388E2,7.355078E2,9.652168E2,5.854297E2,0E0,9.535156E0,1.0237305E2,7.360571E1,0E0,1.4627612E3,6.621133E2,1.0498989E3,2.3603778E2,2.9517576E3,1.0353573E3,6.2739258E1,0E0,2.1031888E2,3.7288086E2,6.128335E2,5.2773956E2,1.886939E2,5.5962695E2,3.4519263E2,5.193047E2,9.340454E1,2.5378125E2,0E0,0E0,4.2539062E0,8.756348E0,0E0,4.381311E1,1.0336655E3,4.5337506E2,5.7208545E2,4.1068945E2,6.9105035E2,6.4126074E2,4.3029114E1,9.421529E1,0E0,0E0,0E0,0E0,0E0,0E0,0E0,0E0,0E0,0E0,0E0,0E0,0E0,0E0,0E0,0E0,0E0,0E0,0E0,0E0,0E0,0E0,0E0,0E0,0E0,0E0,0E0,0E0,0E0,0E0,0E0,0E0,0E0,0E0,0E0,0E0,0E0,0E0,0E0,0E0,0E0,0E0,0E0,0E0,0E0,0E0,0E0,0E0],"parents":[2147483647,0,0,1,1,2,2,3,3,4,4,5,5,6,6,7,7,8,8,9,9,10,10,11,11,12,12,13,13,14,14,15,15,16,16,17,17,18,18,19,19,20,20,21,21,23,23,24,24,25,25,27,27,28,28,29,29,30,30,31,31,32,32,33,33,35,35,36,36,37,37,38,38,39,39,40,40,41,41,42,42,43,43,44,44,47,47,48,48,50,50,51,51,52,52,53,53,54,54,55,55,56,56,57,57,58,58],"right_children":[2,4,6,8,10,12,14,16,18,20,22,24,26,28,30,32,34,36,38,40,42,44,-1,46,48,50,-1,52,54,56,58,60,62,64,-1,66,68,70,72,74,76,78,80,82,84,-1,-1,86,88,-1,90,92,94,96,98,100,102,104,106,-1,-1,-1,-1,-1,-1,-1,-1,-1,-1,-1,-1,-1,-1,-1,-1,-1,-1,-1,-1,-1,-1,-1,-1,-1,-1,-1,-1,-1,-1,-1,-1,-1,-1,-1,-1,-1,-1,-1,-1,-1,-1,-1,-1,-1,-1,-1,-1],"split_conditions":[4.51E2,7.4828217E2,6.0122174E2,4.200815E1,2.3846965E4,3E0,7.1894903E0,6E0,3.81E2,5.501724E1,4E0,1E0,4.059414E1,5.14E2,4E0,4E0,3E0,5.5885117E3,4E0,3.3E1,2.9860416E1,3.0992905E1,1.0781865E-2,4.364331E1,2.4401155E1,3.908974E1,-8.010208E-3,3.3378693E1,4E0,6.445115E2,2.9034597E1,4.916E0,3.64E2,9.352523E-3,-6.1389778E-2,2.7221987E1,5.313134E0,3.940959E1,4.7595924E1,4.1733284E0,2.9608414E0,1.6836807E1,9.116994E0,0E0,3.8334877E0,-4.6110415E-1,-1.8815732E-1,3.137855E4,6.237572E-1,-2.9344556E-1,1.0135379E0,4E0,4.0787067E0,4.481943E1,2.6933884E1,2.7159475E1,4.2882027E1,7E0,-3.1451482E-2,-2.3927984E-1,2.2278203E-1,1.3063923E-1,1.8618654E-2,-3.837032E-1,-1.6399641E-1,-1.2062151E-1,1.0607979E-1,1.9620678E-1,2.9400203E-1,6.5189414E-2,1.5664141E-1,-2.3079962E-1,5.9988014E-2,9.637053E-3,1.5134163E-1,1.9357614E-1,3.7115532E-1,1.6529873E-1,3.474156E-1,3.3420438E-1,4.7297156E-1,2.2308654E-1,4.4058663E-1,1.9301821E-1,6.226683E-1,-3.6965042E-1,-1.5054499E-1,-2.4643138E-1,-9.213041E-2,-1.9929011E-1,-9.5605716E-2,-2.3056182E-1,-7.28417E-2,-4.928295E-2,2.2395639E-2,-3.7436917E-1,-4.91722E-2,-1.6282772E-1,-1.1058773E-1,-1.3758993E-2,1.3599025E-1,4.281459E-2,2.7534077E-1,-1.3102326E-1,-7.5858226E-3,-1.1321416E-1,6.5020476E-3],"split_indices":[9,75,77,58,73,70,50,72,9,3,70,66,56,9,70,70,37,73,72,12,58,56,0,58,53,3,0,58,70,75,55,50,9,40,0,74,50,53,3,24,46,64,39,80,64,0,0,73,21,0,10,70,25,3,58,58,23,16,40,0,0,0,0,0,0,0,0,0,0,0,0,0,0,0,0,0,0,0,0,0,0,0,0,0,0,0,0,0,0,0,0,0,0,0,0,0,0,0,0,0,0,0,0,0,0,0,0],"split_type":[0,0,0,0,0,0,0,0,0,0,0,0,0,0,0,0,0,0,0,0,0,0,0,0,0,0,0,0,0,0,0,0,0,0,0,0,0,0,0,0,0,0,0,0,0,0,0,0,0,0,0,0,0,0,0,0,0,0,0,0,0,0,0,0,0,0,0,0,0,0,0,0,0,0,0,0,0,0,0,0,0,0,0,0,0,0,0,0,0,0,0,0,0,0,0,0,0,0,0,0,0,0,0,0,0,0,0],"sum_hessian":[4.47E3,1.996E3,2.474E3,1.581E3,4.15E2,2.75E2,2.199E3,1.063E3,5.18E2,3.18E2,9.7E1,2.07E2,6.8E1,1.931E3,2.68E2,1.039E3,2.4E1,2.04E2,3.14E2,1.23E2,1.95E2,9.4E1,3E0,1.26E2,8.1E1,6.5E1,3E0,1.254E3,6.77E2,1.87E2,8.1E1,1.09E2,9.3E2,2.1E1,3E0,2.7E1,1.77E2,2.94E2,2E1,3.3E1,9E1,4.9E1,1.46E2,2.1E1,7.3E1,1.23E2,3E0,6.3E1,1.8E1,1.3E1,5.2E1,9.25E2,3.29E2,2.7E1,6.5E2,1.18E2,6.9E1,4.8E1,3.3E1,1.3E1,9.6E1,8E1,8.5E2,1.6E1,5E0,3E0,2.4E1,9.8E1,7.9E1,1.07E2,1.87E2,9E0,1.1E1,1.8E1,1.5E1,6.5E1,2.5E1,3.2E1,1.7E1,7.5E1,7.1E1,9E0,1.2E1,3E0,7E1,6E1,3E0,1.5E1,3E0,4.3E1,9E0,3.8E1,8.87E2,1.3E2,1.99E2,2E1,7E0,4.26E2,2.24E2,4.3E1,7.5E1,1.4E1,5.5E1,4.5E1,3E0,6E0,2.7E1],"tree_param":{"num_deleted":"0","num_feature":"84","num_nodes":"107","size_leaf_vector":"1"}},{"base_weights":[3.9694738E-2,4.279742E0,-3.428127E0,2.4600968E0,1.1846585E1,-1.21782875E1,-2.414784E0,1.1604176E0,4.9784617E0,1.0100081E1,1.7548792E1,-1.372429E1,-6.9634767E0,-3.027043E0,2.2686753E0,1.38888E0,-9.147068E0,7.214681E0,3.5255544E0,7.1124954E0,1.1951932E1,1.8136786E1,1.0566258E-2,-1.1256336E1,-1.4822623E1,-7.3898883E0,-1.7101275E-2,-1.6588978E0,-4.4781785E0,4.3535457E0,-2.5394416E0,5.1514053E0,8.9672136E-1,-1.0746575E1,3.4324665E-2,2.2956836E0,7.9260254E0,3.9354534E0,-3.1110806E0,3.9086118E0,9.178558E0,8.513984E0,1.3168145E1,1.1464509E1,1.9757177E1,-1.1550345E1,-1.4427157E-1,-4.486239E-1,-1.833379E-1,-8.258567E-2,-7.7490478E0,-2.4610171E0,-2.6498199E-1,-8.858176E0,-4.2090797E0,2.4643755E0,7.582077E0,-8.296766E-1,-3.9537244E0,-2.1609828E-1,2.0199353E-1,1.3107143E-1,1.6900245E-2,-3.6909366E-1,-1.6683814E-1,-1.1734697E-1,9.682043E-2,2.0953086E-1,3.331064E-1,1.91445E-1,9.853492E-2,-2.2830151E-1,4.1552294E-2,5.054019E-2,2.345824E-1,3.1449747E-1,8.854519E-2,3.248801E-1,1.4088003E-1,2.1353415E-1,4.1526672E-1,4.1773507E-1,2.3116997E-1,1.8915781E-1,6.069934E-1,-3.5513207E-1,-1.5921286E-1,-2.4159135E-1,-8.755807E-2,-9.21583E-2,-3.8266294E-2,-1.4079936E-3,-2.1145158E-1,-3.0612546E-1,4.234508E-2,-1.4739901E-1,-9.094212E-2,1.0806458E-1,-1.13475695E-1,4.1654408E-2,2.7664346E-1,7.471799E-4,-1.1319708E-1,-3.139591E-2,-1.3431361E-1],"categories":[],"categories_nodes":[],"categories_segments":[],"categories_sizes":[],"default_left":[0,0,0,0,0,0,0,0,0,0,0,0,0,0,0,0,0,0,0,0,0,0,0,0,0,0,0,0,0,0,0,0,0,0,0,0,0,0,0,0,0,0,0,0,0,0,0,0,0,0,0,0,0,0,0,0,0,0,0,0,0,0,0,0,0,0,0,0,0,0,0,0,0,0,0,0,0,0,0,0,0,0,0,0,0,0,0,0,0,0,0,0,0,0,0,0,0,0,0,0,0,0,0,0,0],"id":13,"left_children":[1,3,5,7,9,11,13,15,17,19,21,23,25,27,29,31,33,35,37,39,41,43,-1,45,47,49,-1,51,53,55,57,59,61,63,-1,65,67,69,71,73,75,77,79,81,83,85,-1,-1,-1,-1,87,89,91,93,95,97,99,101,103,-1,-1,-1,-1,-1,-1,-1,-1,-1,-1,-1,-1,-1,-1,-1,-1,-1,-1,-1,-1,-1,-1,-1,-1,-1,-1,-1,-1,-1,-1,-1,-1,-1,-1,-1,-1,-1,-1,-1,-1,-1,-1,-1,-1,-1,-1],"loss_changes":[6.590223E4,2.7718547E4,2.181435E4,5.3170234E3,3.6175625E3,1.9123789E3,6.351909E3,2.5501719E3,1.7580303E3,1.5422734E3,8.9169727E2,2.744414E2,1.5975244E2,3.871996E3,2.5881787E3,1.9426898E3,4.0719495E2,7.282178E2,9.3936865E2,7.345908E2,5.9893945E2,5.89209E2,0E0,3.946289E1,8.207031E0,6.1664062E1,0E0,1.1271853E3,1.0594121E3,1.0647776E3,1.83943E2,2.4469553E3,1.0759447E3,5.925464E1,0E0,1.8939973E2,4.4407617E2,4.7535645E2,4.317313E2,4.0886E2,5.3179346E2,3.847119E2,3.9248633E2,2.42854E1,2.3548047E2,1.44765625E1,0E0,0E0,0E0,0E0,3.964331E1,4.571272E2,5.4609625E2,7.62897E2,7.195762E2,8.413273E2,6.4373364E2,9.522243E1,5.6535706E1,0E0,0E0,0E0,0E0,0E0,0E0,0E0,0E0,0E0,0E0,0E0,0E0,0E0,0E0,0E0,0E0,0E0,0E0,0E0,0E0,0E0,0E0,0E0,0E0,0E0,0E0,0E0,0E0,0E0,0E0,0E0,0E0,0E0,0E0,0E0,0E0,0E0,0E0,0E0,0E0,0E0,0E0,0E0,0E0,0E0,0E0],"parents":[2147483647,0,0,1,1,2,2,3,3,4,4,5,5,6,6,7,7,8,8,9,9,10,10,11,11,12,12,13,13,14,14,15,15,16,16,17,17,18,18,19,19,20,20,21,21,23,23,24,24,25,25,27,27,28,28,29,29,30,30,31,31,32,32,33,33,35,35,36,36,37,37,38,38,39,39,40,40,41,41,42,42,43,43,44,44,45,45,50,50,51,51,52,52,53,53,54,54,55,55,56,56,57,57,58,58],"right_children":[2,4,6,8,10,12,14,16,18,20,22,24,26,28,30,32,34,36,38,40,42,44,-1,46,48,50,-1,52,54,56,58,60,62,64,-1,66,68,70,72,74,76,78,80,82,84,86,-1,-1,-1,-1,88,90,92,94,96,98,100,102,104,-1,-1,-1,-1,-1,-1,-1,-1,-1,-1,-1,-1,-1,-1,-1,-1,-1,-1,-1,-1,-1,-1,-1,-1,-1,-1,-1,-1,-1,-1,-1,-1,-1,-1,-1,-1,-1,-1,-1,-1,-1,-1,-1,-1,-1,-1],"split_conditions":[4.51E2,7.4828217E2,4.090254E1,4.156976E1,2.3846965E4,3E0,7.1894903E0,6E0,3.81E2,5.5203773E1,4E0,1E0,3.7748405E1,5E2,4E0,4E0,5.1035367E-2,5.5885117E3,4E0,3.013464E1,2.695122E1,3.0992905E1,1.0566258E-2,3.0090823E2,4.491017E1,3.8058798E0,-1.7101275E-2,3.2744183E1,4E0,7.15986E2,4.86E2,4.916E0,3.64E2,2.1384043E1,3.4324665E-2,3E0,4.3344287E2,3.2349093E0,4.7595924E1,2.77E2,3E0,5.7633936E-1,4.0063424E0,3E0,3.8334877E0,4.4246876E1,-1.4427157E-1,-4.486239E-1,-1.833379E-1,-8.258567E-2,1.3715229E1,1.4991792E2,4E0,4.7833138E1,2.683494E1,5.51E2,4.2882027E1,2.1941395E-2,2.06E2,-2.1609828E-1,2.0199353E-1,1.3107143E-1,1.6900245E-2,-3.6909366E-1,-1.6683814E-1,-1.1734697E-1,9.682043E-2,2.0953086E-1,3.331064E-1,1.91445E-1,9.853492E-2,-2.2830151E-1,4.1552294E-2,5.054019E-2,2.345824E-1,3.1449747E-1,8.854519E-2,3.248801E-1,1.4088003E-1,2.1353415E-1,4.1526672E-1,4.1773507E-1,2.3116997E-1,1.8915781E-1,6.069934E-1,-3.5513207E-1,-1.5921286E-1,-2.4159135E-1,-8.755807E-2,-9.21583E-2,-3.8266294E-2,-1.4079936E-3,-2.1145158E-1,-3.0612546E-1,4.234508E-2,-1.4739901E-1,-9.094212E-2,1.0806458E-1,-1.13475695E-1,4.1654408E-2,2.7664346E-1,7.471799E-4,-1.1319708E-1,-3.139591E-2,-1.3431361E-1],"split_indices":[9,75,3,58,73,70,50,72,9,3,70,69,64,9,70,70,41,73,72,55,56,56,0,76,56,1,0,58,70,75,9,50,9,4,0,70,75,59,3,8,70,21,25,48,64,56,0,0,0,0,47,76,72,3,54,9,23,41,8,0,0,0,0,0,0,0,0,0,0,0,0,0,0,0,0,0,0,0,0,0,0,0,0,0,0,0,0,0,0,0,0,0,0,0,0,0,0,0,0,0,0,0,0,0,0],"split_type":[0,0,0,0,0,0,0,0,0,0,0,0,0,0,0,0,0,0,0,0,0,0,0,0,0,0,0,0,0,0,0,0,0,0,0,0,0,0,0,0,0,0,0,0,0,0,0,0,0,0,0,0,0,0,0,0,0,0,0,0,0,0,0,0,0,0,0,0,0,0,0,0,0,0,0,0,0,0,0,0,0,0,0,0,0,0,0,0,0,0,0,0,0,0,0,0,0,0,0,0,0,0,0,0,0],"sum_hessian":[4.479E3,2.015E3,2.464E3,1.626E3,3.89E2,2.54E2,2.21E3,1.074E3,5.52E2,3.01E2,8.8E1,1.94E2,6E1,1.955E3,2.55E2,1.052E3,2.2E1,2.15E2,3.37E2,1.18E2,1.83E2,8.5E1,3E0,6.5E1,1.29E2,5.6E1,4E0,1.008E3,9.47E2,1.78E2,7.7E1,1.2E2,9.32E2,1.9E1,3E0,2.8E1,1.87E2,3.18E2,1.9E1,4.8E1,7E1,5.1E1,1.32E2,1.9E1,6.6E1,6.1E1,4E0,1.26E2,3E0,5E0,5.1E1,6.39E2,3.69E2,5.2E1,8.95E2,1.14E2,6.4E1,3.6E1,4.1E1,1.3E1,1.07E2,8E1,8.52E2,1.3E1,6E0,3E0,2.5E1,1.48E2,3.9E1,6.4E1,2.54E2,9E0,1E1,3.2E1,1.6E1,5.7E1,1.3E1,3E1,2.1E1,1.5E1,1.17E2,9E0,1E1,3E0,6.3E1,5.7E1,4E0,4.7E1,4E0,4.2E2,2.19E2,3.59E2,1E1,4.6E1,6E0,5.57E2,3.38E2,9.7E1,1.7E1,1.4E1,5E1,2.9E1,7E0,7E0,3.4E1],"tree_param":{"num_deleted":"0","num_feature":"84","num_nodes":"105","size_leaf_vector":"1"}},{"base_weights":[-1.8203238E-2,4.1358023E0,-3.3560293E0,2.2569468E0,1.1539898E1,-1.1877046E1,-2.3899417E0,2.522244E0,-9.158144E0,9.669288E0,1.7500902E1,-5.911636E0,-1.312705E1,-3.007558E0,2.3430793E0,1.1134496E0,4.517229E0,-1.0134866E1,3.3638168E-2,6.5732555E0,1.1489318E1,1.0354924E-2,1.805554E1,-2.4819365E0,-6.9908676E0,-4.2925942E-1,-1.0774285E1,-4.0033703E0,-1.2021893E0,-6.201287E-1,5.3964944E0,6.5219945E-1,4.8422112E0,2.5930645E0,6.3216753E0,-1.2125013E1,-2.1793759E-1,3.44371E0,8.555397E0,8.705194E0,1.2994745E1,1.1870003E1,1.9533943E1,-1.09871216E-1,3.165857E-2,-2.2236905E-1,-1.030248E-1,-1.1462683E1,-5.9132385E0,-3.7728782E0,-8.446729E0,-8.7836754E-1,-7.446914E0,2.4197419E0,-2.6948802E0,3.0722127E0,7.8126616E0,-3.1275705E-2,4.0080782E-2,-2.0173977E-1,1.9136328E-1,5.249079E-2,1.6741739E-1,1.4527628E-1,2.2597855E-1,-1.3889287E-1,-3.9549062E-1,6.2431037E-2,2.6064646E-1,3.028408E-1,8.7866366E-2,3.272955E-1,1.8617363E-1,2.8328907E-1,4.5046583E-1,4.1570976E-1,2.1453367E-1,4.5278865E-1,6.5145683E-1,-3.502821E-1,-1.4043146E-1,-1.988064E-1,-7.173415E-2,-9.198056E-2,-1.5002377E-1,-3.0974647E-1,6.39499E-2,-5.115172E-2,1.2803899E-2,-7.07603E-2,-2.811352E-1,-1.6634898E-2,1.3872486E-1,-1.401845E-1,-1.5281832E-2,7.120497E-2,2.4481672E-1,-8.1232645E-2,2.5275055E-1],"categories":[],"categories_nodes":[],"categories_segments":[],"categories_sizes":[],"default_left":[0,0,0,0,0,0,0,0,0,0,0,0,0,0,0,0,0,0,0,0,0,0,0,0,0,0,0,0,0,0,0,0,0,0,0,0,0,0,0,0,0,0,0,0,0,0,0,0,0,0,0,0,0,0,0,0,0,0,0,0,0,0,0,0,0,0,0,0,0,0,0,0,0,0,0,0,0,0,0,0,0,0,0,0,0,0,0,0,0,0,0,0,0,0,0,0,0,0,0],"id":14,"left_children":[1,3,5,7,9,11,13,15,17,19,21,23,25,27,29,31,33,35,-1,37,39,-1,41,43,45,-1,47,49,51,53,55,57,59,61,63,65,-1,67,69,71,73,75,77,-1,-1,-1,-1,79,81,83,85,87,89,91,93,95,97,-1,-1,-1,-1,-1,-1,-1,-1,-1,-1,-1,-1,-1,-1,-1,-1,-1,-1,-1,-1,-1,-1,-1,-1,-1,-1,-1,-1,-1,-1,-1,-1,-1,-1,-1,-1,-1,-1,-1,-1,-1,-1],"loss_changes":[6.2102758E4,2.7718027E4,2.0398857E4,4.8590605E3,4.240051E3,1.7626289E3,6.5367266E3,4.3715312E3,3.8531348E2,1.6327324E3,8.8616016E2,1.4419617E2,3.4058984E2,3.5433105E3,2.3448584E3,1.5687247E3,2.2113652E3,5.5358643E1,0E0,6.8848584E2,6.369922E2,0E0,4.826582E2,6.268754E1,1.136084E1,0E0,1.4750098E2,1.252998E3,1.4131472E3,8.455108E2,6.7784155E2,9.483871E2,1.8504849E3,7.7629663E2,5.365742E2,4.3661377E1,0E0,3.173335E2,5.722988E2,2.9451953E2,6.616504E2,4.8750732E1,1.9364258E2,0E0,0E0,0E0,0E0,8.083008E0,5.846649E0,1.027791E3,1.2565249E3,7.25873E2,3.0229126E2,3.6198773E2,3.3905194E2,2.0882214E2,4.315608E2,0E0,0E0,0E0,0E0,0E0,0E0,0E0,0E0,0E0,0E0,0E0,0E0,0E0,0E0,0E0,0E0,0E0,0E0,0E0,0E0,0E0,0E0,0E0,0E0,0E0,0E0,0E0,0E0,0E0,0E0,0E0,0E0,0E0,0E0,0E0,0E0,0E0,0E0,0E0,0E0,0E0,0E0],"parents":[2147483647,0,0,1,1,2,2,3,3,4,4,5,5,6,6,7,7,8,8,9,9,10,10,11,11,12,12,13,13,14,14,15,15,16,16,17,17,19,19,20,20,22,22,23,23,24,24,26,26,27,27,28,28,29,29,30,30,31,31,32,32,33,33,34,34,35,35,37,37,38,38,39,39,40,40,41,41,42,42,47,47,48,48,49,49,50,50,51,51,52,52,53,53,54,54,55,55,56,56],"right_children":[2,4,6,8,10,12,14,16,18,20,22,24,26,28,30,32,34,36,-1,38,40,-1,42,44,46,-1,48,50,52,54,56,58,60,62,64,66,-1,68,70,72,74,76,78,-1,-1,-1,-1,80,82,84,86,88,90,92,94,96,98,-1,-1,-1,-1,-1,-1,-1,-1,-1,-1,-1,-1,-1,-1,-1,-1,-1,-1,-1,-1,-1,-1,-1,-1,-1,-1,-1,-1,-1,-1,-1,-1,-1,-1,-1,-1,-1,-1,-1,-1,-1,-1],"split_conditions":[4.52E2,7.4828217E2,2.3620394E1,6E0,2.3846965E4,1E0,7.1894903E0,4.0025013E1,5.1035367E-2,5.501724E1,1E0,5.34E2,1E0,2.99295E1,5.04957E1,1E0,3.6339886E1,3E0,3.3638168E-2,3.013464E1,2.8457155E1,1.0354924E-2,3.0992905E1,3.9123695E0,3.6542553E1,-4.2925942E-1,1.9933243E2,1E0,4E0,1.10403595E1,2.8324234E1,3.2093094E1,4.916E0,5.22429E1,3.976833E2,-1.181318E-2,-2.1793759E-1,2E0,3E0,3.4211903E0,-4.284885E-3,4E0,-4.7030985E-1,-1.09871216E-1,3.165857E-2,-2.2236905E-1,-1.030248E-1,3.137855E4,1.1418516E1,5.3E2,5.4310365E0,3.23125E1,1E0,2.707282E1,2.817109E1,3.4E1,1E0,-3.1275705E-2,4.0080782E-2,-2.0173977E-1,1.9136328E-1,5.249079E-2,1.6741739E-1,1.4527628E-1,2.2597855E-1,-1.3889287E-1,-3.9549062E-1,6.2431037E-2,2.6064646E-1,3.028408E-1,8.7866366E-2,3.272955E-1,1.8617363E-1,2.8328907E-1,4.5046583E-1,4.1570976E-1,2.1453367E-1,4.5278865E-1,6.5145683E-1,-3.502821E-1,-1.4043146E-1,-1.988064E-1,-7.173415E-2,-9.198056E-2,-1.5002377E-1,-3.0974647E-1,6.39499E-2,-5.115172E-2,1.2803899E-2,-7.07603E-2,-2.811352E-1,-1.6634898E-2,1.3872486E-1,-1.401845E-1,-1.5281832E-2,7.120497E-2,2.4481672E-1,-8.1232645E-2,2.5275055E-1],"split_indices":[9,75,74,72,73,68,50,57,41,3,68,9,66,53,3,68,56,70,0,55,56,0,56,1,56,0,76,68,72,50,56,55,50,53,15,45,0,70,70,60,45,48,38,0,0,0,0,73,78,9,50,56,68,57,74,12,68,0,0,0,0,0,0,0,0,0,0,0,0,0,0,0,0,0,0,0,0,0,0,0,0,0,0,0,0,0,0,0,0,0,0,0,0,0,0,0,0,0,0],"split_type":[0,0,0,0,0,0,0,0,0,0,0,0,0,0,0,0,0,0,0,0,0,0,0,0,0,0,0,0,0,0,0,0,0,0,0,0,0,0,0,0,0,0,0,0,0,0,0,0,0,0,0,0,0,0,0,0,0,0,0,0,0,0,0,0,0,0,0,0,0,0,0,0,0,0,0,0,0,0,0,0,0,0,0,0,0,0,0,0,0,0,0,0,0,0,0,0,0,0,0],"sum_hessian":[4.476E3,1.994E3,2.482E3,1.592E3,4.02E2,2.51E2,2.231E3,1.557E3,3.5E1,3.09E2,9.3E1,4.5E1,2.06E2,1.974E3,2.57E2,9.14E2,6.43E2,3.2E1,3E0,1.17E2,1.92E2,3E0,9E1,1.2E1,3.3E1,1.32E2,7.4E1,1.271E3,7.03E2,1.31E2,1.26E2,8.15E2,9.9E1,3.13E2,3.3E2,1.6E1,1.6E1,4.7E1,7E1,7.1E1,1.21E2,2E1,7E1,9E0,3E0,2.8E1,5E0,6.3E1,1.1E1,1.211E3,6E1,6.7E2,3.3E1,5.3E1,7.8E1,6.6E1,6E1,2.34E2,5.81E2,1.1E1,8.8E1,2.46E2,6.7E1,1.52E2,1.78E2,3E0,1.3E1,3.9E1,8E0,5.4E1,1.6E1,3.5E1,3.6E1,4.7E1,7.4E1,1.2E1,8E0,2.7E1,4.3E1,6E1,3E0,8E0,3E0,7.72E2,4.39E2,5.1E1,9E0,4.1E2,2.6E2,1E1,2.3E1,2.3E1,3E1,4E1,3.8E1,6E1,6E0,3E0,5.7E1],"tree_param":{"num_deleted":"0","num_feature":"84","num_nodes":"99","size_leaf_vector":"1"}},{"base_weights":[3.6144283E-2,4.0660753E0,-3.2564158E0,2.3343828E0,1.1185383E1,-1.097177E1,-2.2426736E0,1.0860362E0,4.864896E0,9.313143E0,1.5640034E1,-5.161687E0,-1.2573975E1,-2.8429856E0,2.389803E0,1.3345315E0,-8.95928E0,7.224157E0,3.7213316E0,6.82199E0,1.14429035E1,4.7611635E-2,1.6258156E1,-1.9742271E0,-6.148038E0,-1.3476071E1,-1.0370719E1,-3.8670743E0,-1.016717E0,4.2956095E0,-2.5916777E0,8.7540376E-1,5.17221E0,-1.0321946E1,3.296541E-2,5.1713104E0,8.41049E0,-1.978359E-1,3.922132E0,1.173762E1,5.746126E0,3.1016731E0,1.2006057E1,1.3160778E1,1.924119E1,-3.039004E0,3.4241352E-2,-6.6165085E0,-1.0465074E-1,-1.4022116E1,-2.8059548E-1,-3.3118546E-1,-6.2559447E0,-3.190057E0,-5.242154E0,-8.0189705E-1,-6.62284E0,2.6666658E0,7.6766176E0,-4.0931063E0,-6.410949E-1,-2.6912993E-2,4.4513937E-2,-2.058968E-1,1.969862E-1,-3.8497725E-1,-1.9670047E-1,-4.533855E-2,1.6561127E-1,2.0369768E-1,2.9913038E-1,6.992546E-2,1.4774406E-1,5.8258872E-2,3.925502E-1,3.3673704E-1,1.3983707E-1,-1.5562415E-3,1.6710658E-1,2.99395E-1,4.2576745E-1,3.094965E-1,5.0189537E-1,4.3952894E-1,6.698557E-1,-1.0413428E-1,-2.919705E-2,-2.2485098E-1,-1.3553949E-1,-4.244419E-1,-1.7037362E-1,-2.0686603E-1,-7.901426E-2,-9.14503E-2,-2.1992694E-1,-1.8158606E-1,-1.08192235E-1,-7.328973E-2,-9.484863E-3,-6.891437E-2,-2.753521E-1,2.8826122E-3,1.3623303E-1,1.6155985E-1,3.6549896E-1,-1.5806971E-1,-9.127267E-2,2.8281651E-2,-7.446956E-2],"categories":[],"categories_nodes":[],"categories_segments":[],"categories_sizes":[],"default_left":[0,0,0,0,0,0,0,0,0,0,0,0,0,0,0,0,0,0,0,0,0,0,0,0,0,0,0,0,0,0,0,0,0,0,0,0,0,0,0,0,0,0,0,0,0,0,0,0,0,0,0,0,0,0,0,0,0,0,0,0,0,0,0,0,0,0,0,0,0,0,0,0,0,0,0,0,0,0,0,0,0,0,0,0,0,0,0,0,0,0,0,0,0,0,0,0,0,0,0,0,0,0,0,0,0,0,0,0,0],"id":15,"left_children":[1,3,5,7,9,11,13,15,17,19,21,23,25,27,29,31,33,35,37,39,41,-1,43,45,47,49,51,53,55,57,59,61,63,65,-1,67,69,-1,71,73,75,77,79,81,83,85,-1,87,-1,89,-1,-1,91,93,95,97,99,101,103,105,107,-1,-1,-1,-1,-1,-1,-1,-1,-1,-1,-1,-1,-1,-1,-1,-1,-1,-1,-1,-1,-1,-1,-1,-1,-1,-1,-1,-1,-1,-1,-1,-1,-1,-1,-1,-1,-1,-1,-1,-1,-1,-1,-1,-1,-1,-1,-1,-1],"loss_changes":[5.9563715E4,2.4843113E4,1.928317E4,5.1257695E3,3.0667188E3,2.5661094E3,6.088007E3,2.7385315E3,1.4049443E3,1.3727676E3,9.523262E2,1.829541E2,2.298086E2,3.6130166E3,2.4047153E3,1.8693938E3,3.8206348E2,3.545791E2,7.9329834E2,6.0135645E2,6.4338086E2,0E0,6.2541016E2,6.363745E1,2.3787964E1,1.4416992E2,8.9711426E1,1.1271445E3,8.305529E2,9.723386E2,2.0158762E2,1.03035E3,1.9717686E3,9.206348E1,0E0,1.7077087E2,1.6695459E2,0E0,5.533291E2,2.558457E2,5.869868E2,9.10609E1,4.006543E2,3.2954688E2,2.4591016E2,6.0951996E0,0E0,1.9626343E1,0E0,1.47421875E1,0E0,0E0,2.1270752E0,4.541006E2,5.0439355E2,5.351612E2,2.4797058E2,6.03125E2,5.0214722E2,2.3093567E1,9.8593346E1,0E0,0E0,0E0,0E0,0E0,0E0,0E0,0E0,0E0,0E0,0E0,0E0,0E0,0E0,0E0,0E0,0E0,0E0,0E0,0E0,0E0,0E0,0E0,0E0,0E0,0E0,0E0,0E0,0E0,0E0,0E0,0E0,0E0,0E0,0E0,0E0,0E0,0E0,0E0,0E0,0E0,0E0,0E0,0E0,0E0,0E0,0E0,0E0],"parents":[2147483647,0,0,1,1,2,2,3,3,4,4,5,5,6,6,7,7,8,8,9,9,10,10,11,11,12,12,13,13,14,14,15,15,16,16,17,17,18,18,19,19,20,20,22,22,23,23,24,24,25,25,26,26,27,27,28,28,29,29,30,30,31,31,32,32,33,33,35,35,36,36,38,38,39,39,40,40,41,41,42,42,43,43,44,44,45,45,47,47,49,49,52,52,53,53,54,54,55,55,56,56,57,57,58,58,59,59,60,60],"right_children":[2,4,6,8,10,12,14,16,18,20,22,24,26,28,30,32,34,36,38,40,42,-1,44,46,48,50,52,54,56,58,60,62,64,66,-1,68,70,-1,72,74,76,78,80,82,84,86,-1,88,-1,90,-1,-1,92,94,96,98,100,102,104,106,108,-1,-1,-1,-1,-1,-1,-1,-1,-1,-1,-1,-1,-1,-1,-1,-1,-1,-1,-1,-1,-1,-1,-1,-1,-1,-1,-1,-1,-1,-1,-1,-1,-1,-1,-1,-1,-1,-1,-1,-1,-1,-1,-1,-1,-1,-1,-1,-1],"split_conditions":[4.51E2,7.4828217E2,4.1455585E1,4.200815E1,3.5204926E2,1E0,7.1894903E0,6E0,3.71E2,3.4082436E1,1E0,5.21E2,1E0,2.99295E1,5E0,1E0,5.1035367E-2,4.6013653E1,1.4570796E1,2.5264074E1,2.9485191E1,4.7611635E-2,3.566038E1,4.893182E1,1.6278934E-2,3E0,1.9933243E2,5.34E2,4E0,5.3414524E1,3.1E1,3.2093094E1,4.916E0,3.134016E0,3.296541E-2,1.581015E2,2.6556534E1,-1.978359E-1,4.0567184E1,2E0,3.21E2,4.927388E-1,5.520748E0,4E0,-4.7030985E-1,2.3589666E1,3.4241352E-2,2.6991993E1,-1.0465074E-1,4.364331E1,-2.8059548E-1,-3.3118546E-1,3.7940884E1,1E0,4.6024517E1,2.9116692E1,1E0,2.7325474E1,4E0,9.184186E1,4.78E2,-2.6912993E-2,4.4513937E-2,-2.058968E-1,1.969862E-1,-3.8497725E-1,-1.9670047E-1,-4.533855E-2,1.6561127E-1,2.0369768E-1,2.9913038E-1,6.992546E-2,1.4774406E-1,5.8258872E-2,3.925502E-1,3.3673704E-1,1.3983707E-1,-1.5562415E-3,1.6710658E-1,2.99395E-1,4.2576745E-1,3.094965E-1,5.0189537E-1,4.3952894E-1,6.698557E-1,-1.0413428E-1,-2.919705E-2,-2.2485098E-1,-1.3553949E-1,-4.244419E-1,-1.7037362E-1,-2.0686603E-1,-7.901426E-2,-9.14503E-2,-2.1992694E-1,-1.8158606E-1,-1.08192235E-1,-7.328973E-2,-9.484863E-3,-6.891437E-2,-2.753521E-1,2.8826122E-3,1.3623303E-1,1.6155985E-1,3.6549896E-1,-1.5806971E-1,-9.127267E-2,2.8281651E-2,-7.446956E-2],"split_indices":[9,75,51,58,15,68,50,72,9,74,68,9,66,53,70,68,41,58,4,34,53,0,55,19,41,70,76,9,72,51,12,55,50,50,0,75,4,0,53,72,9,33,46,72,38,4,0,58,0,58,0,0,18,68,76,55,68,58,72,23,9,0,0,0,0,0,0,0,0,0,0,0,0,0,0,0,0,0,0,0,0,0,0,0,0,0,0,0,0,0,0,0,0,0,0,0,0,0,0,0,0,0,0,0,0,0,0,0,0],"split_type":[0,0,0,0,0,0,0,0,0,0,0,0,0,0,0,0,0,0,0,0,0,0,0,0,0,0,0,0,0,0,0,0,0,0,0,0,0,0,0,0,0,0,0,0,0,0,0,0,0,0,0,0,0,0,0,0,0,0,0,0,0,0,0,0,0,0,0,0,0,0,0,0,0,0,0,0,0,0,0,0,0,0,0,0,0,0,0,0,0,0,0,0,0,0,0,0,0,0,0,0,0,0,0,0,0,0,0,0,0],"sum_hessian":[4.486E3,2.017E3,2.469E3,1.624E3,3.93E2,2.85E2,2.184E3,1.089E3,5.35E2,2.8E2,1.13E2,6.3E1,2.22E2,1.934E3,2.5E2,1.064E3,2.5E1,1.72E2,3.63E2,1.32E2,1.48E2,5E0,1.08E2,1.6E1,4.7E1,1.52E2,7E1,1.238E3,6.96E2,1.81E2,6.9E1,9.52E2,1.12E2,2.2E1,3E0,